digraph Tree {
node [shape=box, style="filled, rounded", color="black", fontname=helvetica] ;
edge [fontname=helvetica] ;
0 [label=<langue &le; 0.1<br/>gini = 0.666<br/>samples = 53426<br/>value = [18694, 17150, 17582]<br/>class = Informatique>, fillcolor="#e5813908"] ;
1 [label=<français &le; 0.131<br/>gini = 0.665<br/>samples = 51061<br/>value = [18561, 16904, 15596]<br/>class = Informatique>, fillcolor="#e581390c"] ;
0 -> 1 [labeldistance=2.5, labelangle=45, headlabel="True"] ;
2 [label=<système &le; 0.057<br/>gini = 0.663<br/>samples = 48976<br/>value = [18435, 16521, 14020]<br/>class = Informatique>, fillcolor="#e581390f"] ;
1 -> 2 ;
3 [label=<linguistique &le; 0.091<br/>gini = 0.664<br/>samples = 47432<br/>value = [17068, 16494, 13870]<br/>class = Informatique>, fillcolor="#e5813905"] ;
2 -> 3 ;
4 [label=<réseau &le; 0.126<br/>gini = 0.662<br/>samples = 46403<br/>value = [16999, 16455, 12949]<br/>class = Informatique>, fillcolor="#e5813905"] ;
3 -> 4 ;
5 [label=<application &le; 0.112<br/>gini = 0.663<br/>samples = 45352<br/>value = [16009, 16433, 12910]<br/>class = Lettres>, fillcolor="#39e58104"] ;
4 -> 5 ;
6 [label=<modèle &le; 0.168<br/>gini = 0.663<br/>samples = 44342<br/>value = [15066, 16424, 12852]<br/>class = Lettres>, fillcolor="#39e5810c"] ;
5 -> 6 ;
7 [label=<littérature &le; 0.08<br/>gini = 0.663<br/>samples = 43273<br/>value = [14193, 16310, 12770]<br/>class = Lettres>, fillcolor="#39e58113"] ;
6 -> 7 ;
8 [label=<roman &le; 0.042<br/>gini = 0.664<br/>samples = 42453<br/>value = [14178, 15569, 12706]<br/>class = Lettres>, fillcolor="#39e5810d"] ;
7 -> 8 ;
9 [label=<discours &le; 0.133<br/>gini = 0.665<br/>samples = 41614<br/>value = [14178, 14834, 12602]<br/>class = Lettres>, fillcolor="#39e58106"] ;
8 -> 9 ;
10 [label=<donnée &le; 0.054<br/>gini = 0.664<br/>samples = 40672<br/>value = [14155, 14652, 11865]<br/>class = Lettres>, fillcolor="#39e58105"] ;
9 -> 10 ;
11 [label=<siècle &le; 0.04<br/>gini = 0.664<br/>samples = 39868<br/>value = [13469, 14643, 11756]<br/>class = Lettres>, fillcolor="#39e5810b"] ;
10 -> 11 ;
12 [label=<modélisation &le; 0.056<br/>gini = 0.665<br/>samples = 38878<br/>value = [13453, 13867, 11558]<br/>class = Lettres>, fillcolor="#39e58104"] ;
11 -> 12 ;
13 [label=<algorithme &le; 0.146<br/>gini = 0.665<br/>samples = 38318<br/>value = [12946, 13864, 11508]<br/>class = Lettres>, fillcolor="#39e58109"] ;
12 -> 13 ;
14 [label=<multi &le; 0.066<br/>gini = 0.665<br/>samples = 37935<br/>value = [12569, 13863, 11503]<br/>class = Lettres>, fillcolor="#39e5810d"] ;
13 -> 14 ;
15 [label=<approche &le; 0.162<br/>gini = 0.665<br/>samples = 37589<br/>value = [12232, 13863, 11494]<br/>class = Lettres>, fillcolor="#39e58110"] ;
14 -> 15 ;
16 [label=<méthode &le; 0.17<br/>gini = 0.664<br/>samples = 36716<br/>value = [11667, 13813, 11236]<br/>class = Lettres>, fillcolor="#39e58116"] ;
15 -> 16 ;
17 [label=<analyse &le; 0.055<br/>gini = 0.663<br/>samples = 36226<br/>value = [11282, 13791, 11153]<br/>class = Lettres>, fillcolor="#39e5811a"] ;
16 -> 17 ;
18 [label=<graphe &le; 0.108<br/>gini = 0.662<br/>samples = 35358<br/>value = [10789, 13749, 10820]<br/>class = Lettres>, fillcolor="#39e5811e"] ;
17 -> 18 ;
19 [label=<environnement &le; 0.174<br/>gini = 0.662<br/>samples = 35135<br/>value = [10568, 13749, 10818]<br/>class = Lettres>, fillcolor="#39e5811f"] ;
18 -> 19 ;
20 [label=<information &le; 0.08<br/>gini = 0.661<br/>samples = 34875<br/>value = [10329, 13747, 10799]<br/>class = Lettres>, fillcolor="#39e5811f"] ;
19 -> 20 ;
21 [label=<littéraire &le; 0.052<br/>gini = 0.66<br/>samples = 34555<br/>value = [10061, 13740, 10754]<br/>class = Lettres>, fillcolor="#39e58120"] ;
20 -> 21 ;
22 [label=<théâtre &le; 0.055<br/>gini = 0.661<br/>samples = 34132<br/>value = [10056, 13373, 10703]<br/>class = Lettres>, fillcolor="#39e5811d"] ;
21 -> 22 ;
23 [label=<automatique &le; 0.073<br/>gini = 0.662<br/>samples = 33790<br/>value = [10048, 13061, 10681]<br/>class = Lettres>, fillcolor="#39e5811a"] ;
22 -> 23 ;
24 [label=<poésie &le; 0.06<br/>gini = 0.661<br/>samples = 33438<br/>value = [9775, 13061, 10602]<br/>class = Lettres>, fillcolor="#39e5811b"] ;
23 -> 24 ;
25 [label=<détection &le; 0.084<br/>gini = 0.662<br/>samples = 33101<br/>value = [9775, 12759, 10567]<br/>class = Lettres>, fillcolor="#39e58119"] ;
24 -> 25 ;
26 [label=<ordonnancement &le; 0.109<br/>gini = 0.662<br/>samples = 32918<br/>value = [9597, 12759, 10562]<br/>class = Lettres>, fillcolor="#39e58119"] ;
25 -> 26 ;
27 [label=<extraction &le; 0.085<br/>gini = 0.661<br/>samples = 32753<br/>value = [9434, 12759, 10560]<br/>class = Lettres>, fillcolor="#39e58119"] ;
26 -> 27 ;
28 [label=<of &le; 0.135<br/>gini = 0.661<br/>samples = 32560<br/>value = [9254, 12757, 10549]<br/>class = Lettres>, fillcolor="#39e5811a"] ;
27 -> 28 ;
29 [label=<3d &le; 0.095<br/>gini = 0.66<br/>samples = 32038<br/>value = [8905, 12629, 10504]<br/>class = Lettres>, fillcolor="#39e58119"] ;
28 -> 29 ;
30 [label=<verbal &le; 0.2<br/>gini = 0.659<br/>samples = 31888<br/>value = [8756, 12629, 10503]<br/>class = Lettres>, fillcolor="#39e58119"] ;
29 -> 30 ;
31 [label=<gestion &le; 0.199<br/>gini = 0.659<br/>samples = 31687<br/>value = [8747, 12626, 10314]<br/>class = Lettres>, fillcolor="#39e5811c"] ;
30 -> 31 ;
32 [label=<simulation &le; 0.071<br/>gini = 0.658<br/>samples = 31478<br/>value = [8565, 12625, 10288]<br/>class = Lettres>, fillcolor="#39e5811c"] ;
31 -> 32 ;
33 [label=<poétique &le; 0.056<br/>gini = 0.658<br/>samples = 31335<br/>value = [8422, 12625, 10288]<br/>class = Lettres>, fillcolor="#39e5811c"] ;
32 -> 33 ;
34 [label=<nom &le; 0.199<br/>gini = 0.659<br/>samples = 30995<br/>value = [8422, 12332, 10241]<br/>class = Lettres>, fillcolor="#39e5811a"] ;
33 -> 34 ;
35 [label=<arabe &le; 0.145<br/>gini = 0.659<br/>samples = 30683<br/>value = [8403, 12290, 9990]<br/>class = Lettres>, fillcolor="#39e5811c"] ;
34 -> 35 ;
36 [label=<aide &le; 0.188<br/>gini = 0.658<br/>samples = 30474<br/>value = [8394, 12277, 9803]<br/>class = Lettres>, fillcolor="#39e5811f"] ;
35 -> 36 ;
37 [label=<discursif &le; 0.213<br/>gini = 0.658<br/>samples = 30264<br/>value = [8221, 12276, 9767]<br/>class = Lettres>, fillcolor="#39e5811f"] ;
36 -> 37 ;
38 [label=<optimisation &le; 0.097<br/>gini = 0.657<br/>samples = 30091<br/>value = [8217, 12270, 9604]<br/>class = Lettres>, fillcolor="#39e58121"] ;
37 -> 38 ;
39 [label=<ontologie &le; 0.237<br/>gini = 0.657<br/>samples = 29965<br/>value = [8091, 12270, 9604]<br/>class = Lettres>, fillcolor="#39e58121"] ;
38 -> 39 ;
40 [label=<corpus &le; 0.175<br/>gini = 0.656<br/>samples = 29829<br/>value = [7960, 12266, 9603]<br/>class = Lettres>, fillcolor="#39e58122"] ;
39 -> 40 ;
41 [label=<apprentissage &le; 0.07<br/>gini = 0.655<br/>samples = 29502<br/>value = [7895, 12246, 9361]<br/>class = Lettres>, fillcolor="#39e58125"] ;
40 -> 41 ;
42 [label=<estimation &le; 0.092<br/>gini = 0.654<br/>samples = 29095<br/>value = [7661, 12227, 9207]<br/>class = Lettres>, fillcolor="#39e58127"] ;
41 -> 42 ;
43 [label=<architecture &le; 0.191<br/>gini = 0.653<br/>samples = 28979<br/>value = [7546, 12227, 9206]<br/>class = Lettres>, fillcolor="#39e58127"] ;
42 -> 43 ;
44 [label=<informatique &le; 0.175<br/>gini = 0.652<br/>samples = 28813<br/>value = [7402, 12210, 9201]<br/>class = Lettres>, fillcolor="#39e58127"] ;
43 -> 44 ;
45 [label=<langage &le; 0.195<br/>gini = 0.652<br/>samples = 28662<br/>value = [7268, 12208, 9186]<br/>class = Lettres>, fillcolor="#39e58128"] ;
44 -> 45 ;
46 [label=<numérique &le; 0.159<br/>gini = 0.651<br/>samples = 28248<br/>value = [7188, 12152, 8908]<br/>class = Lettres>, fillcolor="#39e5812b"] ;
45 -> 46 ;
47 [label=<classification &le; 0.212<br/>gini = 0.649<br/>samples = 27963<br/>value = [6989, 12118, 8856]<br/>class = Lettres>, fillcolor="#39e5812c"] ;
46 -> 47 ;
48 [label=<sémantique &le; 0.168<br/>gini = 0.648<br/>samples = 27806<br/>value = [6856, 12116, 8834]<br/>class = Lettres>, fillcolor="#39e5812c"] ;
47 -> 48 ;
49 [label=<histoire &le; 0.094<br/>gini = 0.647<br/>samples = 27467<br/>value = [6748, 12100, 8619]<br/>class = Lettres>, fillcolor="#39e5812f"] ;
48 -> 49 ;
50 [label=<problème &le; 0.163<br/>gini = 0.649<br/>samples = 26957<br/>value = [6730, 11710, 8517]<br/>class = Lettres>, fillcolor="#39e5812c"] ;
49 -> 50 ;
51 [label=<évaluation &le; 0.064<br/>gini = 0.648<br/>samples = 26681<br/>value = [6550, 11689, 8442]<br/>class = Lettres>, fillcolor="#39e5812d"] ;
50 -> 51 ;
52 [label=<utilisation &le; 0.17<br/>gini = 0.646<br/>samples = 26430<br/>value = [6403, 11688, 8339]<br/>class = Lettres>, fillcolor="#39e5812f"] ;
51 -> 52 ;
53 [label=<construction &le; 0.211<br/>gini = 0.645<br/>samples = 26279<br/>value = [6279, 11681, 8319]<br/>class = Lettres>, fillcolor="#39e58130"] ;
52 -> 53 ;
54 [label=<virtuel &le; 0.087<br/>gini = 0.644<br/>samples = 25962<br/>value = [6217, 11644, 8101]<br/>class = Lettres>, fillcolor="#39e58133"] ;
53 -> 54 ;
55 [label=<interaction &le; 0.178<br/>gini = 0.643<br/>samples = 25843<br/>value = [6112, 11640, 8091]<br/>class = Lettres>, fillcolor="#39e58133"] ;
54 -> 55 ;
56 [label=<verbe &le; 0.07<br/>gini = 0.642<br/>samples = 25589<br/>value = [6020, 11634, 7935]<br/>class = Lettres>, fillcolor="#39e58135"] ;
55 -> 56 ;
57 [label=<chez &le; 0.054<br/>gini = 0.641<br/>samples = 25438<br/>value = [6007, 11626, 7805]<br/>class = Lettres>, fillcolor="#39e58137"] ;
56 -> 57 ;
58 [label=<énonciatif &le; 0.076<br/>gini = 0.644<br/>samples = 24708<br/>value = [5987, 11125, 7596]<br/>class = Lettres>, fillcolor="#39e58135"] ;
57 -> 58 ;
59 [label=<logiciel &le; 0.092<br/>gini = 0.644<br/>samples = 24599<br/>value = [5987, 11120, 7492]<br/>class = Lettres>, fillcolor="#39e58136"] ;
58 -> 59 ;
60 [label=<baser &le; 0.209<br/>gini = 0.643<br/>samples = 24493<br/>value = [5893, 11120, 7480]<br/>class = Lettres>, fillcolor="#39e58137"] ;
59 -> 60 ;
61 [label=<programmation &le; 0.116<br/>gini = 0.642<br/>samples = 24409<br/>value = [5812, 11120, 7477]<br/>class = Lettres>, fillcolor="#39e58137"] ;
60 -> 61 ;
62 [label=<for &le; 0.176<br/>gini = 0.641<br/>samples = 24327<br/>value = [5733, 11120, 7474]<br/>class = Lettres>, fillcolor="#39e58137"] ;
61 -> 62 ;
63 [label=<web &le; 0.086<br/>gini = 0.64<br/>samples = 24208<br/>value = [5633, 11106, 7469]<br/>class = Lettres>, fillcolor="#39e58137"] ;
62 -> 63 ;
64 [label=<segmentation &le; 0.115<br/>gini = 0.639<br/>samples = 24098<br/>value = [5540, 11103, 7455]<br/>class = Lettres>, fillcolor="#39e58138"] ;
63 -> 64 ;
65 [label=<conception &le; 0.162<br/>gini = 0.638<br/>samples = 24014<br/>value = [5461, 11103, 7450]<br/>class = Lettres>, fillcolor="#39e58138"] ;
64 -> 65 ;
66 [label=<grammaire &le; 0.195<br/>gini = 0.637<br/>samples = 23856<br/>value = [5347, 11091, 7418]<br/>class = Lettres>, fillcolor="#39e58139"] ;
65 -> 66 ;
67 [label=<étude &le; 0.161<br/>gini = 0.636<br/>samples = 23716<br/>value = [5327, 11086, 7303]<br/>class = Lettres>, fillcolor="#39e5813b"] ;
66 -> 67 ;
68 [label=<parler &le; 0.191<br/>gini = 0.634<br/>samples = 23261<br/>value = [5187, 11006, 7068]<br/>class = Lettres>, fillcolor="#39e5813e"] ;
67 -> 68 ;
69 [label=<reconnaissance &le; 0.25<br/>gini = 0.634<br/>samples = 23101<br/>value = [5183, 10977, 6941]<br/>class = Lettres>, fillcolor="#39e58140"] ;
68 -> 69 ;
70 [label=<calcul &le; 0.108<br/>gini = 0.633<br/>samples = 22998<br/>value = [5098, 10972, 6928]<br/>class = Lettres>, fillcolor="#39e58140"] ;
69 -> 70 ;
71 [label=<didactique &le; 0.066<br/>gini = 0.632<br/>samples = 22923<br/>value = [5029, 10969, 6925]<br/>class = Lettres>, fillcolor="#39e58140"] ;
70 -> 71 ;
72 [label=<fiction &le; 0.03<br/>gini = 0.631<br/>samples = 22812<br/>value = [5023, 10960, 6829]<br/>class = Lettres>, fillcolor="#39e58142"] ;
71 -> 72 ;
73 [label=<contrainte &le; 0.195<br/>gini = 0.633<br/>samples = 22611<br/>value = [5020, 10778, 6813]<br/>class = Lettres>, fillcolor="#39e58140"] ;
72 -> 73 ;
74 [label=<outil &le; 0.177<br/>gini = 0.631<br/>samples = 22485<br/>value = [4930, 10771, 6784]<br/>class = Lettres>, fillcolor="#39e58141"] ;
73 -> 74 ;
75 [label=<lexical &le; 0.204<br/>gini = 0.63<br/>samples = 22360<br/>value = [4840, 10763, 6757]<br/>class = Lettres>, fillcolor="#39e58141"] ;
74 -> 75 ;
76 [label=<dynamique &le; 0.075<br/>gini = 0.629<br/>samples = 22259<br/>value = [4828, 10759, 6672]<br/>class = Lettres>, fillcolor="#39e58143"] ;
75 -> 76 ;
77 [label=<œuvre &le; 0.052<br/>gini = 0.628<br/>samples = 22098<br/>value = [4726, 10740, 6632]<br/>class = Lettres>, fillcolor="#39e58144"] ;
76 -> 77 ;
78 [label=<anglais &le; 0.217<br/>gini = 0.63<br/>samples = 21882<br/>value = [4716, 10552, 6614]<br/>class = Lettres>, fillcolor="#39e58142"] ;
77 -> 78 ;
79 [label=<mesure &le; 0.203<br/>gini = 0.629<br/>samples = 21725<br/>value = [4715, 10514, 6496]<br/>class = Lettres>, fillcolor="#39e58143"] ;
78 -> 79 ;
80 [label=<image &le; 0.156<br/>gini = 0.628<br/>samples = 21633<br/>value = [4643, 10507, 6483]<br/>class = Lettres>, fillcolor="#39e58144"] ;
79 -> 80 ;
81 [label=<contrôle &le; 0.19<br/>gini = 0.627<br/>samples = 21282<br/>value = [4464, 10386, 6432]<br/>class = Lettres>, fillcolor="#39e58144"] ;
80 -> 81 ;
82 [label=<livre &le; 0.029<br/>gini = 0.626<br/>samples = 21207<br/>value = [4402, 10383, 6422]<br/>class = Lettres>, fillcolor="#39e58144"] ;
81 -> 82 ;
83 [label=<planification &le; 0.126<br/>gini = 0.627<br/>samples = 21022<br/>value = [4396, 10219, 6407]<br/>class = Lettres>, fillcolor="#39e58143"] ;
82 -> 83 ;
84 [label=<grammatical &le; 0.111<br/>gini = 0.626<br/>samples = 20974<br/>value = [4349, 10219, 6406]<br/>class = Lettres>, fillcolor="#39e58143"] ;
83 -> 84 ;
85 [label=<génération &le; 0.271<br/>gini = 0.626<br/>samples = 20915<br/>value = [4349, 10218, 6348]<br/>class = Lettres>, fillcolor="#39e58144"] ;
84 -> 85 ;
86 [label=<cas &le; 0.195<br/>gini = 0.625<br/>samples = 20857<br/>value = [4297, 10213, 6347]<br/>class = Lettres>, fillcolor="#39e58144"] ;
85 -> 86 ;
87 [label=<expression &le; 0.263<br/>gini = 0.624<br/>samples = 20610<br/>value = [4249, 10162, 6199]<br/>class = Lettres>, fillcolor="#39e58146"] ;
86 -> 87 ;
88 [label=<robot &le; 0.106<br/>gini = 0.623<br/>samples = 20511<br/>value = [4235, 10155, 6121]<br/>class = Lettres>, fillcolor="#39e58147"] ;
87 -> 88 ;
89 [label=<machine &le; 0.241<br/>gini = 0.622<br/>samples = 20459<br/>value = [4187, 10152, 6120]<br/>class = Lettres>, fillcolor="#39e58148"] ;
88 -> 89 ;
90 [label=<sociolinguistique &le; 0.077<br/>gini = 0.622<br/>samples = 20395<br/>value = [4133, 10145, 6117]<br/>class = Lettres>, fillcolor="#39e58148"] ;
89 -> 90 ;
91 [label=<protocole &le; 0.116<br/>gini = 0.621<br/>samples = 20341<br/>value = [4133, 10144, 6064]<br/>class = Lettres>, fillcolor="#39e58149"] ;
90 -> 91 ;
92 [label=<intelligence &le; 0.123<br/>gini = 0.62<br/>samples = 20296<br/>value = [4090, 10144, 6062]<br/>class = Lettres>, fillcolor="#39e58149"] ;
91 -> 92 ;
93 [label=<service &le; 0.24<br/>gini = 0.62<br/>samples = 20253<br/>value = [4048, 10143, 6062]<br/>class = Lettres>, fillcolor="#39e58149"] ;
92 -> 93 ;
94 [label=<interactif &le; 0.094<br/>gini = 0.619<br/>samples = 20177<br/>value = [3991, 10137, 6049]<br/>class = Lettres>, fillcolor="#39e5814a"] ;
93 -> 94 ;
95 [label=<phonologie &le; 0.124<br/>gini = 0.618<br/>samples = 20126<br/>value = [3946, 10136, 6044]<br/>class = Lettres>, fillcolor="#39e5814a"] ;
94 -> 95 ;
96 [label=<lexique &le; 0.189<br/>gini = 0.617<br/>samples = 20078<br/>value = [3946, 10136, 5996]<br/>class = Lettres>, fillcolor="#39e5814b"] ;
95 -> 96 ;
97 [label=<langagier &le; 0.107<br/>gini = 0.617<br/>samples = 20015<br/>value = [3941, 10134, 5940]<br/>class = Lettres>, fillcolor="#39e5814c"] ;
96 -> 97 ;
98 [label=<préposition &le; 0.148<br/>gini = 0.616<br/>samples = 19963<br/>value = [3940, 10133, 5890]<br/>class = Lettres>, fillcolor="#39e5814d"] ;
97 -> 98 ;
99 [label=<dictionnaire &le; 0.16<br/>gini = 0.616<br/>samples = 19917<br/>value = [3940, 10133, 5844]<br/>class = Lettres>, fillcolor="#39e5814e"] ;
98 -> 99 ;
100 [label=<connaissance &le; 0.224<br/>gini = 0.615<br/>samples = 19785<br/>value = [3922, 10110, 5753]<br/>class = Lettres>, fillcolor="#39e5814f"] ;
99 -> 100 ;
101 [label=<enseignement &le; 0.16<br/>gini = 0.614<br/>samples = 19698<br/>value = [3861, 10098, 5739]<br/>class = Lettres>, fillcolor="#39e58150"] ;
100 -> 101 ;
102 [label=<syntaxique &le; 0.202<br/>gini = 0.613<br/>samples = 19591<br/>value = [3842, 10086, 5663]<br/>class = Lettres>, fillcolor="#39e58151"] ;
101 -> 102 ;
103 [label=<écrivain &le; 0.049<br/>gini = 0.612<br/>samples = 19524<br/>value = [3834, 10083, 5607]<br/>class = Lettres>, fillcolor="#39e58152"] ;
102 -> 103 ;
104 [label=<développement &le; 0.23<br/>gini = 0.614<br/>samples = 19404<br/>value = [3832, 9969, 5603]<br/>class = Lettres>, fillcolor="#39e58151"] ;
103 -> 104 ;
105 [label=<sémiotique &le; 0.22<br/>gini = 0.613<br/>samples = 19332<br/>value = [3783, 9967, 5582]<br/>class = Lettres>, fillcolor="#39e58151"] ;
104 -> 105 ;
106 [label=<syntaxe &le; 0.078<br/>gini = 0.612<br/>samples = 19270<br/>value = [3783, 9959, 5528]<br/>class = Lettres>, fillcolor="#39e58152"] ;
105 -> 106 ;
107 [label=<non &le; 0.211<br/>gini = 0.611<br/>samples = 19209<br/>value = [3776, 9956, 5477]<br/>class = Lettres>, fillcolor="#39e58153"] ;
106 -> 107 ;
108 [label=<and &le; 0.174<br/>gini = 0.61<br/>samples = 19065<br/>value = [3709, 9935, 5421]<br/>class = Lettres>, fillcolor="#39e58154"] ;
107 -> 108 ;
109 [label=<point &le; 0.23<br/>gini = 0.608<br/>samples = 18955<br/>value = [3641, 9912, 5402]<br/>class = Lettres>, fillcolor="#39e58155"] ;
108 -> 109 ;
110 [label=<formation &le; 0.064<br/>gini = 0.607<br/>samples = 18852<br/>value = [3618, 9900, 5334]<br/>class = Lettres>, fillcolor="#39e58156"] ;
109 -> 110 ;
111 [label=<jean &le; 0.025<br/>gini = 0.606<br/>samples = 18736<br/>value = [3582, 9887, 5267]<br/>class = Lettres>, fillcolor="#39e58157"] ;
110 -> 111 ;
112 [label=<traitement &le; 0.067<br/>gini = 0.608<br/>samples = 18474<br/>value = [3576, 9677, 5221]<br/>class = Lettres>, fillcolor="#39e58156"] ;
111 -> 112 ;
113 [label=<ordinateur &le; 0.106<br/>gini = 0.607<br/>samples = 18381<br/>value = [3534, 9671, 5176]<br/>class = Lettres>, fillcolor="#39e58157"] ;
112 -> 113 ;
114 [label=<terminologie &le; 0.295<br/>gini = 0.606<br/>samples = 18330<br/>value = [3496, 9671, 5163]<br/>class = Lettres>, fillcolor="#39e58157"] ;
113 -> 114 ;
115 [label=<résolution &le; 0.106<br/>gini = 0.605<br/>samples = 18285<br/>value = [3491, 9671, 5123]<br/>class = Lettres>, fillcolor="#39e58158"] ;
114 -> 115 ;
116 [label=<identification &le; 0.082<br/>gini = 0.605<br/>samples = 18248<br/>value = [3458, 9670, 5120]<br/>class = Lettres>, fillcolor="#39e58158"] ;
115 -> 116 ;
117 [label=<phrase &le; 0.255<br/>gini = 0.604<br/>samples = 18197<br/>value = [3419, 9667, 5111]<br/>class = Lettres>, fillcolor="#39e58159"] ;
116 -> 117 ;
118 [label=<objet &le; 0.187<br/>gini = 0.603<br/>samples = 18146<br/>value = [3416, 9663, 5067]<br/>class = Lettres>, fillcolor="#39e5815a"] ;
117 -> 118 ;
119 [label=<agent &le; 0.06<br/>gini = 0.601<br/>samples = 18029<br/>value = [3358, 9645, 5026]<br/>class = Lettres>, fillcolor="#39e5815b"] ;
118 -> 119 ;
120 [label=<saint &le; 0.029<br/>gini = 0.601<br/>samples = 17993<br/>value = [3326, 9642, 5025]<br/>class = Lettres>, fillcolor="#39e5815b"] ;
119 -> 120 ;
121 [label=<marqueur &le; 0.226<br/>gini = 0.603<br/>samples = 17825<br/>value = [3324, 9497, 5004]<br/>class = Lettres>, fillcolor="#39e58159"] ;
120 -> 121 ;
122 [label=<communication &le; 0.242<br/>gini = 0.602<br/>samples = 17787<br/>value = [3324, 9495, 4968]<br/>class = Lettres>, fillcolor="#39e5815a"] ;
121 -> 122 ;
123 [label=<document &le; 0.271<br/>gini = 0.601<br/>samples = 17708<br/>value = [3295, 9490, 4923]<br/>class = Lettres>, fillcolor="#39e5815b"] ;
122 -> 123 ;
124 [label=<aspect &le; 0.306<br/>gini = 0.6<br/>samples = 17668<br/>value = [3262, 9488, 4918]<br/>class = Lettres>, fillcolor="#39e5815b"] ;
123 -> 124 ;
125 [label=<poète &le; 0.075<br/>gini = 0.599<br/>samples = 17616<br/>value = [3253, 9486, 4877]<br/>class = Lettres>, fillcolor="#39e5815c"] ;
124 -> 125 ;
126 [label=<guerre &le; 0.062<br/>gini = 0.601<br/>samples = 17507<br/>value = [3253, 9384, 4870]<br/>class = Lettres>, fillcolor="#39e5815b"] ;
125 -> 126 ;
127 [label=<montaigne &le; 0.08<br/>gini = 0.603<br/>samples = 17362<br/>value = [3252, 9256, 4854]<br/>class = Lettres>, fillcolor="#39e5815a"] ;
126 -> 127 ;
128 [label=<optimal &le; 0.136<br/>gini = 0.604<br/>samples = 17276<br/>value = [3251, 9172, 4853]<br/>class = Lettres>, fillcolor="#39e58159"] ;
127 -> 128 ;
129 [label=<pronom &le; 0.205<br/>gini = 0.603<br/>samples = 17251<br/>value = [3226, 9172, 4853]<br/>class = Lettres>, fillcolor="#39e58159"] ;
128 -> 129 ;
130 [label=<surface &le; 0.282<br/>gini = 0.603<br/>samples = 17215<br/>value = [3226, 9170, 4819]<br/>class = Lettres>, fillcolor="#39e5815a"] ;
129 -> 130 ;
131 [label=<projet &le; 0.18<br/>gini = 0.602<br/>samples = 17184<br/>value = [3198, 9169, 4817]<br/>class = Lettres>, fillcolor="#39e5815a"] ;
130 -> 131 ;
132 [label=<structure &le; 0.19<br/>gini = 0.6<br/>samples = 17052<br/>value = [3137, 9142, 4773]<br/>class = Lettres>, fillcolor="#39e5815b"] ;
131 -> 132 ;
133 [label=<notion &le; 0.352<br/>gini = 0.599<br/>samples = 16973<br/>value = [3111, 9135, 4727]<br/>class = Lettres>, fillcolor="#39e5815c"] ;
132 -> 133 ;
134 [label=<arbre &le; 0.235<br/>gini = 0.599<br/>samples = 16936<br/>value = [3110, 9133, 4693]<br/>class = Lettres>, fillcolor="#39e5815c"] ;
133 -> 134 ;
135 [label=<base &le; 0.196<br/>gini = 0.598<br/>samples = 16895<br/>value = [3077, 9128, 4690]<br/>class = Lettres>, fillcolor="#39e5815d"] ;
134 -> 135 ;
136 [label=<contexte &le; 0.194<br/>gini = 0.597<br/>samples = 16843<br/>value = [3044, 9126, 4673]<br/>class = Lettres>, fillcolor="#39e5815d"] ;
135 -> 136 ;
137 [label=<lexicographique &le; 0.273<br/>gini = 0.596<br/>samples = 16753<br/>value = [3023, 9112, 4618]<br/>class = Lettres>, fillcolor="#39e5815e"] ;
136 -> 137 ;
138 [label=<utilisateur &le; 0.109<br/>gini = 0.595<br/>samples = 16721<br/>value = [3022, 9111, 4588]<br/>class = Lettres>, fillcolor="#39e5815f"] ;
137 -> 138 ;
139 [label=<recherche &le; 0.237<br/>gini = 0.595<br/>samples = 16697<br/>value = [2999, 9111, 4587]<br/>class = Lettres>, fillcolor="#39e5815f"] ;
138 -> 139 ;
140 [label=<internet &le; 0.358<br/>gini = 0.593<br/>samples = 16554<br/>value = [2934, 9074, 4546]<br/>class = Lettres>, fillcolor="#39e58160"] ;
139 -> 140 ;
141 [label=<saussure &le; 0.111<br/>gini = 0.592<br/>samples = 16519<br/>value = [2906, 9072, 4541]<br/>class = Lettres>, fillcolor="#39e58160"] ;
140 -> 141 ;
142 [label=<pragmatique &le; 0.067<br/>gini = 0.591<br/>samples = 16493<br/>value = [2906, 9072, 4515]<br/>class = Lettres>, fillcolor="#39e58161"] ;
141 -> 142 ;
143 [label=<forme &le; 0.232<br/>gini = 0.591<br/>samples = 16462<br/>value = [2906, 9070, 4486]<br/>class = Lettres>, fillcolor="#39e58162"] ;
142 -> 143 ;
144 [label=<synthèse &le; 0.254<br/>gini = 0.589<br/>samples = 16340<br/>value = [2871, 9044, 4425]<br/>class = Lettres>, fillcolor="#39e58163"] ;
143 -> 144 ;
145 [label=<interface &le; 0.281<br/>gini = 0.589<br/>samples = 16301<br/>value = [2841, 9039, 4421]<br/>class = Lettres>, fillcolor="#39e58163"] ;
144 -> 145 ;
146 [label=<critique &le; 0.163<br/>gini = 0.588<br/>samples = 16270<br/>value = [2816, 9038, 4416]<br/>class = Lettres>, fillcolor="#39e58163"] ;
145 -> 146 ;
147 [label=<paris &le; 0.057<br/>gini = 0.59<br/>samples = 16134<br/>value = [2814, 8919, 4401]<br/>class = Lettres>, fillcolor="#39e58162"] ;
146 -> 147 ;
148 [label=<basque &le; 0.099<br/>gini = 0.591<br/>samples = 16016<br/>value = [2813, 8813, 4390]<br/>class = Lettres>, fillcolor="#39e58161"] ;
147 -> 148 ;
149 [label=<signal &le; 0.112<br/>gini = 0.591<br/>samples = 15992<br/>value = [2813, 8813, 4366]<br/>class = Lettres>, fillcolor="#39e58162"] ;
148 -> 149 ;
150 [label=<activité &le; 0.102<br/>gini = 0.59<br/>samples = 15963<br/>value = [2789, 8812, 4362]<br/>class = Lettres>, fillcolor="#39e58162"] ;
149 -> 150 ;
151 [label=<sécurité &le; 0.131<br/>gini = 0.589<br/>samples = 15919<br/>value = [2763, 8811, 4345]<br/>class = Lettres>, fillcolor="#39e58162"] ;
150 -> 151 ;
152 [label=<mathématique &le; 0.082<br/>gini = 0.588<br/>samples = 15898<br/>value = [2743, 8811, 4344]<br/>class = Lettres>, fillcolor="#39e58163"] ;
151 -> 152 ;
153 [label=<phonétique &le; 0.138<br/>gini = 0.588<br/>samples = 15877<br/>value = [2723, 8810, 4344]<br/>class = Lettres>, fillcolor="#39e58163"] ;
152 -> 153 ;
154 [label=<lettre &le; 0.069<br/>gini = 0.587<br/>samples = 15849<br/>value = [2720, 8810, 4319]<br/>class = Lettres>, fillcolor="#39e58163"] ;
153 -> 154 ;
155 [label=<adjectif &le; 0.113<br/>gini = 0.589<br/>samples = 15701<br/>value = [2717, 8684, 4300]<br/>class = Lettres>, fillcolor="#39e58162"] ;
154 -> 155 ;
156 [label=<oral &le; 0.198<br/>gini = 0.589<br/>samples = 15658<br/>value = [2714, 8678, 4266]<br/>class = Lettres>, fillcolor="#39e58163"] ;
155 -> 156 ;
157 [label=<visualisation &le; 0.252<br/>gini = 0.588<br/>samples = 15610<br/>value = [2712, 8669, 4229]<br/>class = Lettres>, fillcolor="#39e58163"] ;
156 -> 157 ;
158 [label=<temporel &le; 0.229<br/>gini = 0.587<br/>samples = 15590<br/>value = [2693, 8669, 4228]<br/>class = Lettres>, fillcolor="#39e58164"] ;
157 -> 158 ;
159 [label=<dire &le; 0.203<br/>gini = 0.586<br/>samples = 15539<br/>value = [2671, 8666, 4202]<br/>class = Lettres>, fillcolor="#39e58164"] ;
158 -> 159 ;
160 [label=<performance &le; 0.175<br/>gini = 0.586<br/>samples = 15403<br/>value = [2666, 8613, 4124]<br/>class = Lettres>, fillcolor="#39e58165"] ;
159 -> 160 ;
161 [label=<nominal &le; 0.148<br/>gini = 0.585<br/>samples = 15376<br/>value = [2643, 8611, 4122]<br/>class = Lettres>, fillcolor="#39e58166"] ;
160 -> 161 ;
162 [label=<vocabulaire &le; 0.127<br/>gini = 0.584<br/>samples = 15347<br/>value = [2642, 8609, 4096]<br/>class = Lettres>, fillcolor="#39e58166"] ;
161 -> 162 ;
163 [label=<charge &le; 0.111<br/>gini = 0.584<br/>samples = 15319<br/>value = [2640, 8608, 4071]<br/>class = Lettres>, fillcolor="#39e58167"] ;
162 -> 163 ;
164 [label=<linguiste &le; 0.139<br/>gini = 0.583<br/>samples = 15281<br/>value = [2627, 8608, 4046]<br/>class = Lettres>, fillcolor="#39e58168"] ;
163 -> 164 ;
165 [label=<processus &le; 0.183<br/>gini = 0.583<br/>samples = 15255<br/>value = [2626, 8607, 4022]<br/>class = Lettres>, fillcolor="#39e58168"] ;
164 -> 165 ;
166 [label=<interprétation &le; 0.298<br/>gini = 0.581<br/>samples = 15189<br/>value = [2592, 8596, 4001]<br/>class = Lettres>, fillcolor="#39e58169"] ;
165 -> 166 ;
167 [label=<figement &le; 0.156<br/>gini = 0.58<br/>samples = 15148<br/>value = [2583, 8593, 3972]<br/>class = Lettres>, fillcolor="#39e58169"] ;
166 -> 167 ;
168 [label=<technologie &le; 0.094<br/>gini = 0.58<br/>samples = 15128<br/>value = [2583, 8593, 3952]<br/>class = Lettres>, fillcolor="#39e5816a"] ;
167 -> 168 ;
169 [label=<robuste &le; 0.224<br/>gini = 0.579<br/>samples = 15100<br/>value = [2562, 8592, 3946]<br/>class = Lettres>, fillcolor="#39e5816a"] ;
168 -> 169 ;
170 [label=<requête &le; 0.288<br/>gini = 0.579<br/>samples = 15084<br/>value = [2546, 8592, 3946]<br/>class = Lettres>, fillcolor="#39e5816a"] ;
169 -> 170 ;
171 [label=<vidéo &le; 0.295<br/>gini = 0.578<br/>samples = 15068<br/>value = [2530, 8592, 3946]<br/>class = Lettres>, fillcolor="#39e5816b"] ;
170 -> 171 ;
172 [label=<pratique &le; 0.183<br/>gini = 0.577<br/>samples = 15046<br/>value = [2511, 8591, 3944]<br/>class = Lettres>, fillcolor="#39e5816b"] ;
171 -> 172 ;
173 [label=<dialecte &le; 0.119<br/>gini = 0.576<br/>samples = 14908<br/>value = [2480, 8550, 3878]<br/>class = Lettres>, fillcolor="#39e5816c"] ;
172 -> 173 ;
174 [label=<terme &le; 0.097<br/>gini = 0.575<br/>samples = 14886<br/>value = [2480, 8549, 3857]<br/>class = Lettres>, fillcolor="#39e5816c"] ;
173 -> 174 ;
175 [label=<élève &le; 0.214<br/>gini = 0.574<br/>samples = 14848<br/>value = [2472, 8546, 3830]<br/>class = Lettres>, fillcolor="#39e5816d"] ;
174 -> 175 ;
176 [label=<artificiel &le; 0.133<br/>gini = 0.574<br/>samples = 14825<br/>value = [2471, 8545, 3809]<br/>class = Lettres>, fillcolor="#39e5816e"] ;
175 -> 176 ;
177 [label=<robotique &le; 0.153<br/>gini = 0.573<br/>samples = 14805<br/>value = [2453, 8543, 3809]<br/>class = Lettres>, fillcolor="#39e5816e"] ;
176 -> 177 ;
178 [label=<plurilingue &le; 0.135<br/>gini = 0.573<br/>samples = 14790<br/>value = [2438, 8543, 3809]<br/>class = Lettres>, fillcolor="#39e5816e"] ;
177 -> 178 ;
179 [label=<lecture &le; 0.069<br/>gini = 0.572<br/>samples = 14772<br/>value = [2438, 8543, 3791]<br/>class = Lettres>, fillcolor="#39e5816e"] ;
178 -> 179 ;
180 [label=<scène &le; 0.067<br/>gini = 0.575<br/>samples = 14576<br/>value = [2430, 8384, 3762]<br/>class = Lettres>, fillcolor="#39e5816d"] ;
179 -> 180 ;
181 [label=<âge &le; 0.152<br/>gini = 0.576<br/>samples = 14471<br/>value = [2426, 8290, 3755]<br/>class = Lettres>, fillcolor="#39e5816c"] ;
180 -> 181 ;
182 [label=<voyage &le; 0.072<br/>gini = 0.578<br/>samples = 14380<br/>value = [2425, 8207, 3748]<br/>class = Lettres>, fillcolor="#39e5816b"] ;
181 -> 182 ;
183 [label=<femme &le; 0.073<br/>gini = 0.58<br/>samples = 14250<br/>value = [2422, 8096, 3732]<br/>class = Lettres>, fillcolor="#39e5816a"] ;
182 -> 183 ;
184 [label=<poème &le; 0.107<br/>gini = 0.582<br/>samples = 14122<br/>value = [2422, 7987, 3713]<br/>class = Lettres>, fillcolor="#39e58169"] ;
183 -> 184 ;
185 [label=<énonciation &le; 0.349<br/>gini = 0.583<br/>samples = 14031<br/>value = [2422, 7905, 3704]<br/>class = Lettres>, fillcolor="#39e58168"] ;
184 -> 185 ;
186 [label=<fle &le; 0.105<br/>gini = 0.583<br/>samples = 14004<br/>value = [2421, 7902, 3681]<br/>class = Lettres>, fillcolor="#39e58168"] ;
185 -> 186 ;
187 [label=<quelques &le; 0.229<br/>gini = 0.582<br/>samples = 13985<br/>value = [2420, 7902, 3663]<br/>class = Lettres>, fillcolor="#39e58169"] ;
186 -> 187 ;
188 [label=<motif &le; 0.3<br/>gini = 0.581<br/>samples = 13860<br/>value = [2412, 7853, 3595]<br/>class = Lettres>, fillcolor="#39e5816a"] ;
187 -> 188 ;
189 [label=<technique &le; 0.188<br/>gini = 0.581<br/>samples = 13836<br/>value = [2393, 7851, 3592]<br/>class = Lettres>, fillcolor="#39e5816a"] ;
188 -> 189 ;
190 [label=<ressource &le; 0.198<br/>gini = 0.58<br/>samples = 13785<br/>value = [2368, 7844, 3573]<br/>class = Lettres>, fillcolor="#39e5816b"] ;
189 -> 190 ;
191 [label=<adaptatif &le; 0.128<br/>gini = 0.579<br/>samples = 13762<br/>value = [2350, 7843, 3569]<br/>class = Lettres>, fillcolor="#39e5816b"] ;
190 -> 191 ;
192 [label=<routage &le; 0.138<br/>gini = 0.578<br/>samples = 13748<br/>value = [2336, 7843, 3569]<br/>class = Lettres>, fillcolor="#39e5816b"] ;
191 -> 192 ;
193 [label=<argumentation &le; 0.104<br/>gini = 0.578<br/>samples = 13734<br/>value = [2322, 7843, 3569]<br/>class = Lettres>, fillcolor="#39e5816b"] ;
192 -> 193 ;
194 [label=<acquisition &le; 0.252<br/>gini = 0.577<br/>samples = 13711<br/>value = [2318, 7843, 3550]<br/>class = Lettres>, fillcolor="#39e5816c"] ;
193 -> 194 ;
195 [label=<logique &le; 0.287<br/>gini = 0.577<br/>samples = 13687<br/>value = [2315, 7842, 3530]<br/>class = Lettres>, fillcolor="#39e5816c"] ;
194 -> 195 ;
196 [label=<parole &le; 0.231<br/>gini = 0.576<br/>samples = 13654<br/>value = [2292, 7835, 3527]<br/>class = Lettres>, fillcolor="#39e5816c"] ;
195 -> 196 ;
197 [label=<spatial &le; 0.239<br/>gini = 0.575<br/>samples = 13558<br/>value = [2284, 7801, 3473]<br/>class = Lettres>, fillcolor="#39e5816d"] ;
196 -> 197 ;
198 [label=<amélioration &le; 0.136<br/>gini = 0.574<br/>samples = 13523<br/>value = [2268, 7799, 3456]<br/>class = Lettres>, fillcolor="#39e5816e"] ;
197 -> 198 ;
199 [label=<grammaticalisation &le; 0.186<br/>gini = 0.573<br/>samples = 13510<br/>value = [2255, 7799, 3456]<br/>class = Lettres>, fillcolor="#39e5816e"] ;
198 -> 199 ;
200 [label=<russe &le; 0.267<br/>gini = 0.573<br/>samples = 13492<br/>value = [2255, 7798, 3439]<br/>class = Lettres>, fillcolor="#39e5816f"] ;
199 -> 200 ;
201 [label=<évolution &le; 0.157<br/>gini = 0.573<br/>samples = 13460<br/>value = [2255, 7791, 3414]<br/>class = Lettres>, fillcolor="#39e5816f"] ;
200 -> 201 ;
202 [label=<romanesque &le; 0.077<br/>gini = 0.571<br/>samples = 13407<br/>value = [2228, 7780, 3399]<br/>class = Lettres>, fillcolor="#39e58170"] ;
201 -> 202 ;
203 [label=<effet &le; 0.236<br/>gini = 0.573<br/>samples = 13352<br/>value = [2228, 7726, 3398]<br/>class = Lettres>, fillcolor="#39e5816f"] ;
202 -> 203 ;
204 [label=<géométrie &le; 0.289<br/>gini = 0.572<br/>samples = 13301<br/>value = [2217, 7716, 3368]<br/>class = Lettres>, fillcolor="#39e58170"] ;
203 -> 204 ;
205 [label=<séparation &le; 0.133<br/>gini = 0.571<br/>samples = 13283<br/>value = [2202, 7715, 3366]<br/>class = Lettres>, fillcolor="#39e58170"] ;
204 -> 205 ;
206 [label=<sound &le; 0.088<br/>gini = 0.57<br/>samples = 13269<br/>value = [2189, 7715, 3365]<br/>class = Lettres>, fillcolor="#39e58170"] ;
205 -> 206 ;
207 [label=<homme &le; 0.077<br/>gini = 0.57<br/>samples = 13257<br/>value = [2177, 7715, 3365]<br/>class = Lettres>, fillcolor="#39e58170"] ;
206 -> 207 ;
208 [label=<qualité &le; 0.11<br/>gini = 0.571<br/>samples = 13167<br/>value = [2173, 7635, 3359]<br/>class = Lettres>, fillcolor="#39e5816f"] ;
207 -> 208 ;
209 [label=<prosodie &le; 0.253<br/>gini = 0.571<br/>samples = 13135<br/>value = [2155, 7632, 3348]<br/>class = Lettres>, fillcolor="#39e58170"] ;
208 -> 209 ;
210 [label=<subordination &le; 0.118<br/>gini = 0.57<br/>samples = 13121<br/>value = [2155, 7632, 3334]<br/>class = Lettres>, fillcolor="#39e58170"] ;
209 -> 210 ;
211 [label=<caractérisation &le; 0.143<br/>gini = 0.57<br/>samples = 13107<br/>value = [2155, 7632, 3320]<br/>class = Lettres>, fillcolor="#39e58170"] ;
210 -> 211 ;
212 [label=<nombre &le; 0.273<br/>gini = 0.569<br/>samples = 13080<br/>value = [2138, 7630, 3312]<br/>class = Lettres>, fillcolor="#39e58171"] ;
211 -> 212 ;
213 [label=<présentation &le; 0.268<br/>gini = 0.568<br/>samples = 13061<br/>value = [2124, 7630, 3307]<br/>class = Lettres>, fillcolor="#39e58171"] ;
212 -> 213 ;
214 [label=<spécification &le; 0.319<br/>gini = 0.567<br/>samples = 13002<br/>value = [2114, 7615, 3273]<br/>class = Lettres>, fillcolor="#39e58172"] ;
213 -> 214 ;
215 [label=<orthographe &le; 0.119<br/>gini = 0.567<br/>samples = 12989<br/>value = [2102, 7615, 3272]<br/>class = Lettres>, fillcolor="#39e58172"] ;
214 -> 215 ;
216 [label=<féminin &le; 0.083<br/>gini = 0.566<br/>samples = 12974<br/>value = [2101, 7615, 3258]<br/>class = Lettres>, fillcolor="#39e58172"] ;
215 -> 216 ;
217 [label=<maillage &le; 0.174<br/>gini = 0.567<br/>samples = 12913<br/>value = [2101, 7557, 3255]<br/>class = Lettres>, fillcolor="#39e58172"] ;
216 -> 217 ;
218 [label=<vers &le; 0.212<br/>gini = 0.567<br/>samples = 12902<br/>value = [2090, 7557, 3255]<br/>class = Lettres>, fillcolor="#39e58172"] ;
217 -> 218 ;
219 [label=<presse &le; 0.263<br/>gini = 0.565<br/>samples = 12797<br/>value = [2048, 7521, 3228]<br/>class = Lettres>, fillcolor="#39e58172"] ;
218 -> 219 ;
220 [label=<logistique &le; 0.147<br/>gini = 0.565<br/>samples = 12767<br/>value = [2048, 7514, 3205]<br/>class = Lettres>, fillcolor="#39e58173"] ;
219 -> 220 ;
221 [label=<glossarum &le; 0.13<br/>gini = 0.564<br/>samples = 12756<br/>value = [2037, 7514, 3205]<br/>class = Lettres>, fillcolor="#39e58173"] ;
220 -> 221 ;
222 [label=<laryngé &le; 0.273<br/>gini = 0.564<br/>samples = 12743<br/>value = [2037, 7514, 3192]<br/>class = Lettres>, fillcolor="#39e58173"] ;
221 -> 222 ;
223 [label=<plurilinguisme &le; 0.354<br/>gini = 0.564<br/>samples = 12730<br/>value = [2037, 7514, 3179]<br/>class = Lettres>, fillcolor="#39e58174"] ;
222 -> 223 ;
224 [label=<phonologique &le; 0.144<br/>gini = 0.563<br/>samples = 12717<br/>value = [2037, 7514, 3166]<br/>class = Lettres>, fillcolor="#39e58174"] ;
223 -> 224 ;
225 [label=<actif &le; 0.107<br/>gini = 0.563<br/>samples = 12704<br/>value = [2037, 7514, 3153]<br/>class = Lettres>, fillcolor="#39e58174"] ;
224 -> 225 ;
226 [label=<comparaison &le; 0.094<br/>gini = 0.562<br/>samples = 12689<br/>value = [2024, 7513, 3152]<br/>class = Lettres>, fillcolor="#39e58175"] ;
225 -> 226 ;
227 [label=<électronique &le; 0.342<br/>gini = 0.561<br/>samples = 12643<br/>value = [2007, 7505, 3131]<br/>class = Lettres>, fillcolor="#39e58175"] ;
226 -> 227 ;
228 [label=<in &le; 0.177<br/>gini = 0.56<br/>samples = 12625<br/>value = [1994, 7505, 3126]<br/>class = Lettres>, fillcolor="#39e58176"] ;
227 -> 228 ;
229 [label=<reformulation &le; 0.124<br/>gini = 0.559<br/>samples = 12524<br/>value = [1952, 7468, 3104]<br/>class = Lettres>, fillcolor="#39e58176"] ;
228 -> 229 ;
230 [label=<concept &le; 0.227<br/>gini = 0.558<br/>samples = 12506<br/>value = [1952, 7466, 3088]<br/>class = Lettres>, fillcolor="#39e58177"] ;
229 -> 230 ;
231 [label=<personne &le; 0.278<br/>gini = 0.557<br/>samples = 12465<br/>value = [1933, 7459, 3073]<br/>class = Lettres>, fillcolor="#39e58177"] ;
230 -> 231 ;
232 [label=<francophonie &le; 0.145<br/>gini = 0.556<br/>samples = 12437<br/>value = [1923, 7457, 3057]<br/>class = Lettres>, fillcolor="#39e58178"] ;
231 -> 232 ;
233 [label=<linéaire &le; 0.104<br/>gini = 0.556<br/>samples = 12422<br/>value = [1923, 7456, 3043]<br/>class = Lettres>, fillcolor="#39e58178"] ;
232 -> 233 ;
234 [label=<combinatoire &le; 0.138<br/>gini = 0.555<br/>samples = 12405<br/>value = [1909, 7453, 3043]<br/>class = Lettres>, fillcolor="#39e58178"] ;
233 -> 234 ;
235 [label=<berbère &le; 0.115<br/>gini = 0.555<br/>samples = 12393<br/>value = [1898, 7453, 3042]<br/>class = Lettres>, fillcolor="#39e58178"] ;
234 -> 235 ;
236 [label=<lexicographie &le; 0.149<br/>gini = 0.554<br/>samples = 12381<br/>value = [1898, 7453, 3030]<br/>class = Lettres>, fillcolor="#39e58179"] ;
235 -> 236 ;
237 [label=<vérification &le; 0.151<br/>gini = 0.554<br/>samples = 12369<br/>value = [1898, 7453, 3018]<br/>class = Lettres>, fillcolor="#39e58179"] ;
236 -> 237 ;
238 [label=<games &le; 0.284<br/>gini = 0.553<br/>samples = 12359<br/>value = [1888, 7453, 3018]<br/>class = Lettres>, fillcolor="#39e58179"] ;
237 -> 238 ;
239 [label=<csp &le; 0.156<br/>gini = 0.553<br/>samples = 12349<br/>value = [1878, 7453, 3018]<br/>class = Lettres>, fillcolor="#39e58179"] ;
238 -> 239 ;
240 [label=<asservissement &le; 0.173<br/>gini = 0.552<br/>samples = 12339<br/>value = [1868, 7453, 3018]<br/>class = Lettres>, fillcolor="#39e58179"] ;
239 -> 240 ;
241 [label=<enseignant &le; 0.083<br/>gini = 0.552<br/>samples = 12329<br/>value = [1858, 7453, 3018]<br/>class = Lettres>, fillcolor="#39e58179"] ;
240 -> 241 ;
242 [label=<étymologie &le; 0.14<br/>gini = 0.551<br/>samples = 12305<br/>value = [1852, 7451, 3002]<br/>class = Lettres>, fillcolor="#39e5817a"] ;
241 -> 242 ;
243 [label=<implémentation &le; 0.195<br/>gini = 0.551<br/>samples = 12291<br/>value = [1852, 7450, 2989]<br/>class = Lettres>, fillcolor="#39e5817a"] ;
242 -> 243 ;
244 [label=<plateforme &le; 0.104<br/>gini = 0.55<br/>samples = 12280<br/>value = [1842, 7450, 2988]<br/>class = Lettres>, fillcolor="#39e5817a"] ;
243 -> 244 ;
245 [label=<sélection &le; 0.244<br/>gini = 0.55<br/>samples = 12269<br/>value = [1832, 7450, 2987]<br/>class = Lettres>, fillcolor="#39e5817b"] ;
244 -> 245 ;
246 [label=<entreprise &le; 0.247<br/>gini = 0.549<br/>samples = 12258<br/>value = [1822, 7450, 2986]<br/>class = Lettres>, fillcolor="#39e5817b"] ;
245 -> 246 ;
247 [label=<dialogisme &le; 0.142<br/>gini = 0.549<br/>samples = 12243<br/>value = [1811, 7450, 2982]<br/>class = Lettres>, fillcolor="#39e5817b"] ;
246 -> 247 ;
248 [label=<to &le; 0.202<br/>gini = 0.548<br/>samples = 12227<br/>value = [1811, 7448, 2968]<br/>class = Lettres>, fillcolor="#39e5817b"] ;
247 -> 248 ;
249 [label=<sens &le; 0.208<br/>gini = 0.547<br/>samples = 12194<br/>value = [1793, 7441, 2960]<br/>class = Lettres>, fillcolor="#39e5817c"] ;
248 -> 249 ;
250 [label=<amour &le; 0.101<br/>gini = 0.546<br/>samples = 12106<br/>value = [1785, 7406, 2915]<br/>class = Lettres>, fillcolor="#39e5817d"] ;
249 -> 250 ;
251 [label=<filtrage &le; 0.134<br/>gini = 0.547<br/>samples = 12041<br/>value = [1785, 7345, 2911]<br/>class = Lettres>, fillcolor="#39e5817c"] ;
250 -> 251 ;
252 [label=<capteur &le; 0.124<br/>gini = 0.547<br/>samples = 12032<br/>value = [1776, 7345, 2911]<br/>class = Lettres>, fillcolor="#39e5817c"] ;
251 -> 252 ;
253 [label=<dimension &le; 0.267<br/>gini = 0.547<br/>samples = 12023<br/>value = [1767, 7345, 2911]<br/>class = Lettres>, fillcolor="#39e5817c"] ;
252 -> 253 ;
254 [label=<codage &le; 0.145<br/>gini = 0.546<br/>samples = 12002<br/>value = [1756, 7344, 2902]<br/>class = Lettres>, fillcolor="#39e5817c"] ;
253 -> 254 ;
255 [label=<négation &le; 0.35<br/>gini = 0.545<br/>samples = 11990<br/>value = [1746, 7344, 2900]<br/>class = Lettres>, fillcolor="#39e5817d"] ;
254 -> 255 ;
256 [label=<versus &le; 0.248<br/>gini = 0.545<br/>samples = 11974<br/>value = [1744, 7343, 2887]<br/>class = Lettres>, fillcolor="#39e5817d"] ;
255 -> 256 ;
257 [label=<perspective &le; 0.228<br/>gini = 0.544<br/>samples = 11947<br/>value = [1742, 7337, 2868]<br/>class = Lettres>, fillcolor="#39e5817e"] ;
256 -> 257 ;
258 [label=<moteur &le; 0.127<br/>gini = 0.543<br/>samples = 11910<br/>value = [1732, 7330, 2848]<br/>class = Lettres>, fillcolor="#39e5817e"] ;
257 -> 258 ;
259 [label=<valeur &le; 0.254<br/>gini = 0.542<br/>samples = 11899<br/>value = [1722, 7329, 2848]<br/>class = Lettres>, fillcolor="#39e5817e"] ;
258 -> 259 ;
260 [label=<toponyme &le; 0.309<br/>gini = 0.542<br/>samples = 11863<br/>value = [1719, 7319, 2825]<br/>class = Lettres>, fillcolor="#39e5817f"] ;
259 -> 260 ;
261 [label=<data &le; 0.284<br/>gini = 0.541<br/>samples = 11853<br/>value = [1719, 7319, 2815]<br/>class = Lettres>, fillcolor="#39e5817f"] ;
260 -> 261 ;
262 [label=<cadre &le; 0.224<br/>gini = 0.541<br/>samples = 11843<br/>value = [1710, 7319, 2814]<br/>class = Lettres>, fillcolor="#39e5817f"] ;
261 -> 262 ;
263 [label=<extension &le; 0.127<br/>gini = 0.54<br/>samples = 11821<br/>value = [1699, 7317, 2805]<br/>class = Lettres>, fillcolor="#39e58180"] ;
262 -> 263 ;
264 [label=<cryptographie &le; 0.177<br/>gini = 0.539<br/>samples = 11803<br/>value = [1686, 7313, 2804]<br/>class = Lettres>, fillcolor="#39e58180"] ;
263 -> 264 ;
265 [label=<transport &le; 0.112<br/>gini = 0.539<br/>samples = 11795<br/>value = [1678, 7313, 2804]<br/>class = Lettres>, fillcolor="#39e58180"] ;
264 -> 265 ;
266 [label=<vie &le; 0.077<br/>gini = 0.538<br/>samples = 11787<br/>value = [1670, 7313, 2804]<br/>class = Lettres>, fillcolor="#39e58180"] ;
265 -> 266 ;
267 [label=<scolaire &le; 0.261<br/>gini = 0.54<br/>samples = 11683<br/>value = [1665, 7223, 2795]<br/>class = Lettres>, fillcolor="#39e5817f"] ;
266 -> 267 ;
268 [label=<embarquer &le; 0.311<br/>gini = 0.54<br/>samples = 11666<br/>value = [1664, 7221, 2781]<br/>class = Lettres>, fillcolor="#39e5817f"] ;
267 -> 268 ;
269 [label=<relatif &le; 0.153<br/>gini = 0.539<br/>samples = 11658<br/>value = [1656, 7221, 2781]<br/>class = Lettres>, fillcolor="#39e58180"] ;
268 -> 269 ;
270 [label=<ingénierie &le; 0.146<br/>gini = 0.539<br/>samples = 11643<br/>value = [1656, 7219, 2768]<br/>class = Lettres>, fillcolor="#39e58180"] ;
269 -> 270 ;
271 [label=<virtuelle &le; 0.205<br/>gini = 0.538<br/>samples = 11635<br/>value = [1648, 7219, 2768]<br/>class = Lettres>, fillcolor="#39e58180"] ;
270 -> 271 ;
272 [label=<climat &le; 0.377<br/>gini = 0.538<br/>samples = 11627<br/>value = [1640, 7219, 2768]<br/>class = Lettres>, fillcolor="#39e58180"] ;
271 -> 272 ;
273 [label=<séquence &le; 0.314<br/>gini = 0.537<br/>samples = 11619<br/>value = [1632, 7219, 2768]<br/>class = Lettres>, fillcolor="#39e58180"] ;
272 -> 273 ;
274 [label=<tragédie &le; 0.238<br/>gini = 0.537<br/>samples = 11603<br/>value = [1624, 7219, 2760]<br/>class = Lettres>, fillcolor="#39e58181"] ;
273 -> 274 ;
275 [label=<on &le; 0.272<br/>gini = 0.538<br/>samples = 11561<br/>value = [1624, 7177, 2760]<br/>class = Lettres>, fillcolor="#39e58180"] ;
274 -> 275 ;
276 [label=<exploration &le; 0.12<br/>gini = 0.537<br/>samples = 11510<br/>value = [1616, 7161, 2733]<br/>class = Lettres>, fillcolor="#39e58181"] ;
275 -> 276 ;
277 [label=<analyser &le; 0.086<br/>gini = 0.536<br/>samples = 11491<br/>value = [1603, 7157, 2731]<br/>class = Lettres>, fillcolor="#39e58181"] ;
276 -> 277 ;
278 [label=<vocal &le; 0.226<br/>gini = 0.535<br/>samples = 11464<br/>value = [1592, 7153, 2719]<br/>class = Lettres>, fillcolor="#39e58181"] ;
277 -> 278 ;
279 [label=<preuve &le; 0.141<br/>gini = 0.535<br/>samples = 11446<br/>value = [1591, 7150, 2705]<br/>class = Lettres>, fillcolor="#39e58182"] ;
278 -> 279 ;
280 [label=<réel &le; 0.236<br/>gini = 0.534<br/>samples = 11433<br/>value = [1581, 7149, 2703]<br/>class = Lettres>, fillcolor="#39e58182"] ;
279 -> 280 ;
281 [label=<test &le; 0.126<br/>gini = 0.533<br/>samples = 11397<br/>value = [1564, 7140, 2693]<br/>class = Lettres>, fillcolor="#39e58182"] ;
280 -> 281 ;
282 [label=<distribuer &le; 0.139<br/>gini = 0.532<br/>samples = 11384<br/>value = [1555, 7140, 2689]<br/>class = Lettres>, fillcolor="#39e58183"] ;
281 -> 282 ;
283 [label=<catalan &le; 0.257<br/>gini = 0.532<br/>samples = 11374<br/>value = [1546, 7139, 2689]<br/>class = Lettres>, fillcolor="#39e58183"] ;
282 -> 283 ;
284 [label=<prosodique &le; 0.143<br/>gini = 0.531<br/>samples = 11365<br/>value = [1546, 7139, 2680]<br/>class = Lettres>, fillcolor="#39e58183"] ;
283 -> 284 ;
285 [label=<concession &le; 0.123<br/>gini = 0.531<br/>samples = 11356<br/>value = [1546, 7139, 2671]<br/>class = Lettres>, fillcolor="#39e58183"] ;
284 -> 285 ;
286 [label=<vietnamien &le; 0.146<br/>gini = 0.531<br/>samples = 11347<br/>value = [1546, 7139, 2662]<br/>class = Lettres>, fillcolor="#39e58183"] ;
285 -> 286 ;
287 [label=<terminologique &le; 0.07<br/>gini = 0.53<br/>samples = 11338<br/>value = [1546, 7139, 2653]<br/>class = Lettres>, fillcolor="#39e58184"] ;
286 -> 287 ;
288 [label=<traduction &le; 0.308<br/>gini = 0.53<br/>samples = 11325<br/>value = [1545, 7138, 2642]<br/>class = Lettres>, fillcolor="#39e58184"] ;
287 -> 288 ;
289 [label=<classe &le; 0.276<br/>gini = 0.529<br/>samples = 11269<br/>value = [1545, 7113, 2611]<br/>class = Lettres>, fillcolor="#39e58185"] ;
288 -> 289 ;
290 [label=<code &le; 0.251<br/>gini = 0.528<br/>samples = 11248<br/>value = [1538, 7111, 2599]<br/>class = Lettres>, fillcolor="#39e58185"] ;
289 -> 290 ;
291 [label=<mécanisme &le; 0.114<br/>gini = 0.528<br/>samples = 11228<br/>value = [1525, 7106, 2597]<br/>class = Lettres>, fillcolor="#39e58185"] ;
290 -> 291 ;
292 [label=<implicite &le; 0.107<br/>gini = 0.527<br/>samples = 11215<br/>value = [1517, 7106, 2592]<br/>class = Lettres>, fillcolor="#39e58185"] ;
291 -> 292 ;
293 [label=<position &le; 0.115<br/>gini = 0.526<br/>samples = 11205<br/>value = [1516, 7106, 2583]<br/>class = Lettres>, fillcolor="#39e58186"] ;
292 -> 293 ;
294 [label=<schéma &le; 0.127<br/>gini = 0.526<br/>samples = 11194<br/>value = [1516, 7105, 2573]<br/>class = Lettres>, fillcolor="#39e58186"] ;
293 -> 294 ;
295 [label=<comportement &le; 0.131<br/>gini = 0.525<br/>samples = 11184<br/>value = [1508, 7105, 2571]<br/>class = Lettres>, fillcolor="#39e58186"] ;
294 -> 295 ;
296 [label=<norme &le; 0.251<br/>gini = 0.525<br/>samples = 11174<br/>value = [1500, 7105, 2569]<br/>class = Lettres>, fillcolor="#39e58186"] ;
295 -> 296 ;
297 [label=<diagnostic &le; 0.117<br/>gini = 0.524<br/>samples = 11157<br/>value = [1497, 7103, 2557]<br/>class = Lettres>, fillcolor="#39e58187"] ;
296 -> 297 ;
298 [label=<association &le; 0.259<br/>gini = 0.524<br/>samples = 11150<br/>value = [1490, 7103, 2557]<br/>class = Lettres>, fillcolor="#39e58187"] ;
297 -> 298 ;
299 [label=<smart &le; 0.109<br/>gini = 0.523<br/>samples = 11143<br/>value = [1483, 7103, 2557]<br/>class = Lettres>, fillcolor="#39e58187"] ;
298 -> 299 ;
300 [label=<fusion &le; 0.296<br/>gini = 0.523<br/>samples = 11136<br/>value = [1476, 7103, 2557]<br/>class = Lettres>, fillcolor="#39e58187"] ;
299 -> 300 ;
301 [label=<chouchan &le; 0.099<br/>gini = 0.522<br/>samples = 11129<br/>value = [1469, 7103, 2557]<br/>class = Lettres>, fillcolor="#39e58187"] ;
300 -> 301 ;
302 [label=<alignement &le; 0.2<br/>gini = 0.522<br/>samples = 11122<br/>value = [1462, 7103, 2557]<br/>class = Lettres>, fillcolor="#39e58187"] ;
301 -> 302 ;
303 [label=<type &le; 0.279<br/>gini = 0.521<br/>samples = 11110<br/>value = [1454, 7103, 2553]<br/>class = Lettres>, fillcolor="#39e58188"] ;
302 -> 303 ;
304 [label=<rapide &le; 0.112<br/>gini = 0.52<br/>samples = 11091<br/>value = [1447, 7101, 2543]<br/>class = Lettres>, fillcolor="#39e58188"] ;
303 -> 304 ;
305 [label=<répétition &le; 0.362<br/>gini = 0.52<br/>samples = 11082<br/>value = [1439, 7100, 2543]<br/>class = Lettres>, fillcolor="#39e58188"] ;
304 -> 305 ;
306 [label=<représentation &le; 0.275<br/>gini = 0.52<br/>samples = 11074<br/>value = [1439, 7100, 2535]<br/>class = Lettres>, fillcolor="#39e58188"] ;
305 -> 306 ;
307 [label=<notice &le; 0.418<br/>gini = 0.518<br/>samples = 11018<br/>value = [1427, 7081, 2510]<br/>class = Lettres>, fillcolor="#39e58189"] ;
306 -> 307 ;
308 [label=<concordance &le; 0.301<br/>gini = 0.52<br/>samples = 10970<br/>value = [1427, 7034, 2509]<br/>class = Lettres>, fillcolor="#39e58188"] ;
307 -> 308 ;
309 [label=<auxiliaire &le; 0.129<br/>gini = 0.519<br/>samples = 10962<br/>value = [1427, 7034, 2501]<br/>class = Lettres>, fillcolor="#39e58189"] ;
308 -> 309 ;
310 [label=<résultat &le; 0.08<br/>gini = 0.519<br/>samples = 10954<br/>value = [1427, 7034, 2493]<br/>class = Lettres>, fillcolor="#39e58189"] ;
309 -> 310 ;
311 [label=<apprendre &le; 0.294<br/>gini = 0.518<br/>samples = 10941<br/>value = [1421, 7034, 2486]<br/>class = Lettres>, fillcolor="#39e58189"] ;
310 -> 311 ;
312 [label=<arithmétique &le; 0.198<br/>gini = 0.518<br/>samples = 10927<br/>value = [1418, 7033, 2476]<br/>class = Lettres>, fillcolor="#39e5818a"] ;
311 -> 312 ;
313 [label=<perception &le; 0.336<br/>gini = 0.517<br/>samples = 10919<br/>value = [1411, 7033, 2475]<br/>class = Lettres>, fillcolor="#39e5818a"] ;
312 -> 313 ;
314 [label=<changement &le; 0.303<br/>gini = 0.516<br/>samples = 10901<br/>value = [1403, 7031, 2467]<br/>class = Lettres>, fillcolor="#39e5818a"] ;
313 -> 314 ;
315 [label=<fonction &le; 0.292<br/>gini = 0.515<br/>samples = 10884<br/>value = [1394, 7029, 2461]<br/>class = Lettres>, fillcolor="#39e5818a"] ;
314 -> 315 ;
316 [label=<compétence &le; 0.256<br/>gini = 0.514<br/>samples = 10861<br/>value = [1385, 7025, 2451]<br/>class = Lettres>, fillcolor="#39e5818b"] ;
315 -> 316 ;
317 [label=<conditionnel &le; 0.366<br/>gini = 0.514<br/>samples = 10852<br/>value = [1384, 7025, 2443]<br/>class = Lettres>, fillcolor="#39e5818b"] ;
316 -> 317 ;
318 [label=<modal &le; 0.136<br/>gini = 0.514<br/>samples = 10843<br/>value = [1383, 7025, 2435]<br/>class = Lettres>, fillcolor="#39e5818b"] ;
317 -> 318 ;
319 [label=<dénomination &le; 0.12<br/>gini = 0.513<br/>samples = 10834<br/>value = [1382, 7025, 2427]<br/>class = Lettres>, fillcolor="#39e5818b"] ;
318 -> 319 ;
320 [label=<voix &le; 0.335<br/>gini = 0.513<br/>samples = 10824<br/>value = [1382, 7024, 2418]<br/>class = Lettres>, fillcolor="#39e5818c"] ;
319 -> 320 ;
321 [label=<variable &le; 0.123<br/>gini = 0.512<br/>samples = 10787<br/>value = [1379, 7011, 2397]<br/>class = Lettres>, fillcolor="#39e5818c"] ;
320 -> 321 ;
322 [label=<reconstruction &le; 0.313<br/>gini = 0.511<br/>samples = 10774<br/>value = [1371, 7010, 2393]<br/>class = Lettres>, fillcolor="#39e5818c"] ;
321 -> 322 ;
323 [label=<croissance &le; 0.168<br/>gini = 0.511<br/>samples = 10763<br/>value = [1363, 7009, 2391]<br/>class = Lettres>, fillcolor="#39e5818d"] ;
322 -> 323 ;
324 [label=<propagation &le; 0.116<br/>gini = 0.51<br/>samples = 10757<br/>value = [1357, 7009, 2391]<br/>class = Lettres>, fillcolor="#39e5818d"] ;
323 -> 324 ;
325 [label=<véhicule &le; 0.152<br/>gini = 0.51<br/>samples = 10751<br/>value = [1351, 7009, 2391]<br/>class = Lettres>, fillcolor="#39e5818d"] ;
324 -> 325 ;
326 [label=<commande &le; 0.312<br/>gini = 0.509<br/>samples = 10745<br/>value = [1345, 7009, 2391]<br/>class = Lettres>, fillcolor="#39e5818d"] ;
325 -> 326 ;
327 [label=<canal &le; 0.136<br/>gini = 0.509<br/>samples = 10739<br/>value = [1339, 7009, 2391]<br/>class = Lettres>, fillcolor="#39e5818d"] ;
326 -> 327 ;
328 [label=<cellulaire &le; 0.152<br/>gini = 0.508<br/>samples = 10733<br/>value = [1333, 7009, 2391]<br/>class = Lettres>, fillcolor="#39e5818d"] ;
327 -> 328 ;
329 [label=<interopérabilité &le; 0.189<br/>gini = 0.508<br/>samples = 10727<br/>value = [1327, 7009, 2391]<br/>class = Lettres>, fillcolor="#39e5818d"] ;
328 -> 329 ;
330 [label=<composant &le; 0.162<br/>gini = 0.508<br/>samples = 10721<br/>value = [1321, 7009, 2391]<br/>class = Lettres>, fillcolor="#39e5818d"] ;
329 -> 330 ;
331 [label=<confiance &le; 0.338<br/>gini = 0.507<br/>samples = 10715<br/>value = [1315, 7009, 2391]<br/>class = Lettres>, fillcolor="#39e5818d"] ;
330 -> 331 ;
332 [label=<innovation &le; 0.333<br/>gini = 0.507<br/>samples = 10709<br/>value = [1309, 7009, 2391]<br/>class = Lettres>, fillcolor="#39e5818e"] ;
331 -> 332 ;
333 [label=<larynx &le; 0.161<br/>gini = 0.506<br/>samples = 10695<br/>value = [1302, 7008, 2385]<br/>class = Lettres>, fillcolor="#39e5818e"] ;
332 -> 333 ;
334 [label=<surveillance &le; 0.15<br/>gini = 0.506<br/>samples = 10688<br/>value = [1302, 7008, 2378]<br/>class = Lettres>, fillcolor="#39e5818e"] ;
333 -> 334 ;
335 [label=<dislocation &le; 0.382<br/>gini = 0.505<br/>samples = 10682<br/>value = [1296, 7008, 2378]<br/>class = Lettres>, fillcolor="#39e5818e"] ;
334 -> 335 ;
336 [label=<saillance &le; 0.157<br/>gini = 0.505<br/>samples = 10675<br/>value = [1296, 7008, 2371]<br/>class = Lettres>, fillcolor="#39e5818e"] ;
335 -> 336 ;
337 [label=<toponymie &le; 0.116<br/>gini = 0.505<br/>samples = 10668<br/>value = [1296, 7008, 2364]<br/>class = Lettres>, fillcolor="#39e5818f"] ;
336 -> 337 ;
338 [label=<corrélation &le; 0.282<br/>gini = 0.504<br/>samples = 10661<br/>value = [1296, 7008, 2357]<br/>class = Lettres>, fillcolor="#39e5818f"] ;
337 -> 338 ;
339 [label=<épistémologique &le; 0.406<br/>gini = 0.504<br/>samples = 10654<br/>value = [1296, 7008, 2350]<br/>class = Lettres>, fillcolor="#39e5818f"] ;
338 -> 339 ;
340 [label=<voyelle &le; 0.092<br/>gini = 0.504<br/>samples = 10647<br/>value = [1296, 7008, 2343]<br/>class = Lettres>, fillcolor="#39e5818f"] ;
339 -> 340 ;
341 [label=<passif &le; 0.216<br/>gini = 0.503<br/>samples = 10639<br/>value = [1295, 7008, 2336]<br/>class = Lettres>, fillcolor="#39e5818f"] ;
340 -> 341 ;
342 [label=<formule &le; 0.339<br/>gini = 0.503<br/>samples = 10631<br/>value = [1294, 7008, 2329]<br/>class = Lettres>, fillcolor="#39e58190"] ;
341 -> 342 ;
343 [label=<programme &le; 0.312<br/>gini = 0.502<br/>samples = 10616<br/>value = [1286, 7006, 2324]<br/>class = Lettres>, fillcolor="#39e58190"] ;
342 -> 343 ;
344 [label=<navigation &le; 0.136<br/>gini = 0.501<br/>samples = 10599<br/>value = [1277, 7003, 2319]<br/>class = Lettres>, fillcolor="#39e58190"] ;
343 -> 344 ;
345 [label=<médiation &le; 0.123<br/>gini = 0.501<br/>samples = 10592<br/>value = [1271, 7003, 2318]<br/>class = Lettres>, fillcolor="#39e58190"] ;
344 -> 345 ;
346 [label=<discret &le; 0.299<br/>gini = 0.5<br/>samples = 10583<br/>value = [1269, 7003, 2311]<br/>class = Lettres>, fillcolor="#39e58191"] ;
345 -> 346 ;
347 [label=<traduire &le; 0.234<br/>gini = 0.499<br/>samples = 10572<br/>value = [1261, 7001, 2310]<br/>class = Lettres>, fillcolor="#39e58191"] ;
346 -> 347 ;
348 [label=<compte &le; 0.249<br/>gini = 0.499<br/>samples = 10523<br/>value = [1259, 6979, 2285]<br/>class = Lettres>, fillcolor="#39e58191"] ;
347 -> 348 ;
349 [label=<critère &le; 0.124<br/>gini = 0.498<br/>samples = 10508<br/>value = [1255, 6977, 2276]<br/>class = Lettres>, fillcolor="#39e58192"] ;
348 -> 349 ;
350 [label=<impact &le; 0.107<br/>gini = 0.497<br/>samples = 10500<br/>value = [1249, 6977, 2274]<br/>class = Lettres>, fillcolor="#39e58192"] ;
349 -> 350 ;
351 [label=<japonais &le; 0.264<br/>gini = 0.497<br/>samples = 10488<br/>value = [1241, 6975, 2272]<br/>class = Lettres>, fillcolor="#39e58192"] ;
350 -> 351 ;
352 [label=<prédication &le; 0.239<br/>gini = 0.496<br/>samples = 10475<br/>value = [1241, 6972, 2262]<br/>class = Lettres>, fillcolor="#39e58192"] ;
351 -> 352 ;
353 [label=<emploi &le; 0.234<br/>gini = 0.496<br/>samples = 10460<br/>value = [1241, 6968, 2251]<br/>class = Lettres>, fillcolor="#39e58193"] ;
352 -> 353 ;
354 [label=<typologie &le; 0.479<br/>gini = 0.495<br/>samples = 10431<br/>value = [1240, 6957, 2234]<br/>class = Lettres>, fillcolor="#39e58193"] ;
353 -> 354 ;
355 [label=<dérivé &le; 0.186<br/>gini = 0.495<br/>samples = 10425<br/>value = [1240, 6957, 2228]<br/>class = Lettres>, fillcolor="#39e58193"] ;
354 -> 355 ;
356 [label=<nicolas_sarkozy &le; 0.154<br/>gini = 0.495<br/>samples = 10419<br/>value = [1240, 6957, 2222]<br/>class = Lettres>, fillcolor="#39e58193"] ;
355 -> 356 ;
357 [label=<polyphonie &le; 0.431<br/>gini = 0.494<br/>samples = 10413<br/>value = [1240, 6957, 2216]<br/>class = Lettres>, fillcolor="#39e58193"] ;
356 -> 357 ;
358 [label=<manifestation &le; 0.185<br/>gini = 0.494<br/>samples = 10407<br/>value = [1240, 6957, 2210]<br/>class = Lettres>, fillcolor="#39e58194"] ;
357 -> 358 ;
359 [label=<paralysie &le; 0.159<br/>gini = 0.493<br/>samples = 10401<br/>value = [1240, 6957, 2204]<br/>class = Lettres>, fillcolor="#39e58194"] ;
358 -> 359 ;
360 [label=<focalisation &le; 0.182<br/>gini = 0.493<br/>samples = 10395<br/>value = [1240, 6957, 2198]<br/>class = Lettres>, fillcolor="#39e58194"] ;
359 -> 360 ;
361 [label=<larousse &le; 0.192<br/>gini = 0.493<br/>samples = 10389<br/>value = [1240, 6957, 2192]<br/>class = Lettres>, fillcolor="#39e58194"] ;
360 -> 361 ;
362 [label=<syntagme &le; 0.147<br/>gini = 0.492<br/>samples = 10383<br/>value = [1240, 6957, 2186]<br/>class = Lettres>, fillcolor="#39e58194"] ;
361 -> 362 ;
363 [label=<co &le; 0.254<br/>gini = 0.492<br/>samples = 10377<br/>value = [1240, 6957, 2180]<br/>class = Lettres>, fillcolor="#39e58195"] ;
362 -> 363 ;
364 [label=<hittite &le; 0.179<br/>gini = 0.492<br/>samples = 10371<br/>value = [1240, 6957, 2174]<br/>class = Lettres>, fillcolor="#39e58195"] ;
363 -> 364 ;
365 [label=<définition &le; 0.34<br/>gini = 0.491<br/>samples = 10365<br/>value = [1240, 6957, 2168]<br/>class = Lettres>, fillcolor="#39e58195"] ;
364 -> 365 ;
366 [label=<intervention &le; 0.221<br/>gini = 0.491<br/>samples = 10356<br/>value = [1237, 6957, 2162]<br/>class = Lettres>, fillcolor="#39e58195"] ;
365 -> 366 ;
367 [label=<sonore &le; 0.377<br/>gini = 0.49<br/>samples = 10347<br/>value = [1234, 6957, 2156]<br/>class = Lettres>, fillcolor="#39e58195"] ;
366 -> 367 ;
368 [label=<turing &le; 0.229<br/>gini = 0.49<br/>samples = 10338<br/>value = [1231, 6957, 2150]<br/>class = Lettres>, fillcolor="#39e58196"] ;
367 -> 368 ;
369 [label=<coupe &le; 0.172<br/>gini = 0.489<br/>samples = 10333<br/>value = [1226, 6957, 2150]<br/>class = Lettres>, fillcolor="#39e58196"] ;
368 -> 369 ;
370 [label=<prédiction &le; 0.293<br/>gini = 0.489<br/>samples = 10328<br/>value = [1221, 6957, 2150]<br/>class = Lettres>, fillcolor="#39e58196"] ;
369 -> 370 ;
371 [label=<with &le; 0.244<br/>gini = 0.489<br/>samples = 10323<br/>value = [1216, 6957, 2150]<br/>class = Lettres>, fillcolor="#39e58196"] ;
370 -> 371 ;
372 [label=<simulateur &le; 0.167<br/>gini = 0.488<br/>samples = 10318<br/>value = [1211, 6957, 2150]<br/>class = Lettres>, fillcolor="#39e58196"] ;
371 -> 372 ;
373 [label=<mouvement &le; 0.39<br/>gini = 0.488<br/>samples = 10313<br/>value = [1206, 6957, 2150]<br/>class = Lettres>, fillcolor="#39e58196"] ;
372 -> 373 ;
374 [label=<augmentée &le; 0.159<br/>gini = 0.487<br/>samples = 10308<br/>value = [1201, 6957, 2150]<br/>class = Lettres>, fillcolor="#39e58196"] ;
373 -> 374 ;
375 [label=<antenne &le; 0.181<br/>gini = 0.487<br/>samples = 10303<br/>value = [1196, 6957, 2150]<br/>class = Lettres>, fillcolor="#39e58196"] ;
374 -> 375 ;
376 [label=<bioinformatique &le; 0.214<br/>gini = 0.487<br/>samples = 10298<br/>value = [1191, 6957, 2150]<br/>class = Lettres>, fillcolor="#39e58196"] ;
375 -> 376 ;
377 [label=<stabilité &le; 0.176<br/>gini = 0.486<br/>samples = 10293<br/>value = [1186, 6957, 2150]<br/>class = Lettres>, fillcolor="#39e58197"] ;
376 -> 377 ;
378 [label=<sounds &le; 0.14<br/>gini = 0.486<br/>samples = 10288<br/>value = [1181, 6957, 2150]<br/>class = Lettres>, fillcolor="#39e58197"] ;
377 -> 378 ;
379 [label=<intérêt &le; 0.24<br/>gini = 0.485<br/>samples = 10283<br/>value = [1176, 6957, 2150]<br/>class = Lettres>, fillcolor="#39e58197"] ;
378 -> 379 ;
380 [label=<réalisation &le; 0.368<br/>gini = 0.485<br/>samples = 10278<br/>value = [1171, 6957, 2150]<br/>class = Lettres>, fillcolor="#39e58197"] ;
379 -> 380 ;
381 [label=<algèbre &le; 0.204<br/>gini = 0.485<br/>samples = 10273<br/>value = [1166, 6957, 2150]<br/>class = Lettres>, fillcolor="#39e58197"] ;
380 -> 381 ;
382 [label=<social &le; 0.28<br/>gini = 0.484<br/>samples = 10268<br/>value = [1161, 6957, 2150]<br/>class = Lettres>, fillcolor="#39e58197"] ;
381 -> 382 ;
383 [label=<adaptation &le; 0.379<br/>gini = 0.483<br/>samples = 10237<br/>value = [1149, 6947, 2141]<br/>class = Lettres>, fillcolor="#39e58197"] ;
382 -> 383 ;
384 [label=<gène &le; 0.191<br/>gini = 0.483<br/>samples = 10232<br/>value = [1144, 6947, 2141]<br/>class = Lettres>, fillcolor="#39e58197"] ;
383 -> 384 ;
385 [label=<généralisation &le; 0.157<br/>gini = 0.482<br/>samples = 10227<br/>value = [1139, 6947, 2141]<br/>class = Lettres>, fillcolor="#39e58198"] ;
384 -> 385 ;
386 [label=<apprenant &le; 0.116<br/>gini = 0.482<br/>samples = 10222<br/>value = [1134, 6947, 2141]<br/>class = Lettres>, fillcolor="#39e58198"] ;
385 -> 386 ;
387 [label=<autour &le; 0.318<br/>gini = 0.481<br/>samples = 10213<br/>value = [1129, 6947, 2137]<br/>class = Lettres>, fillcolor="#39e58198"] ;
386 -> 387 ;
388 [label=<inscription &le; 0.099<br/>gini = 0.481<br/>samples = 10189<br/>value = [1127, 6939, 2123]<br/>class = Lettres>, fillcolor="#39e58198"] ;
387 -> 388 ;
389 [label=<version &le; 0.355<br/>gini = 0.48<br/>samples = 10165<br/>value = [1125, 6931, 2109]<br/>class = Lettres>, fillcolor="#39e58199"] ;
388 -> 389 ;
390 [label=<calculer &le; 0.234<br/>gini = 0.479<br/>samples = 10158<br/>value = [1119, 6930, 2109]<br/>class = Lettres>, fillcolor="#39e58199"] ;
389 -> 390 ;
391 [label=<étudiant &le; 0.24<br/>gini = 0.479<br/>samples = 10151<br/>value = [1113, 6929, 2109]<br/>class = Lettres>, fillcolor="#39e58199"] ;
390 -> 391 ;
392 [label=<adverbe &le; 0.154<br/>gini = 0.478<br/>samples = 10143<br/>value = [1111, 6929, 2103]<br/>class = Lettres>, fillcolor="#39e58199"] ;
391 -> 392 ;
393 [label=<ethos &le; 0.298<br/>gini = 0.478<br/>samples = 10135<br/>value = [1111, 6928, 2096]<br/>class = Lettres>, fillcolor="#39e58199"] ;
392 -> 393 ;
394 [label=<occitan &le; 0.208<br/>gini = 0.478<br/>samples = 10127<br/>value = [1111, 6927, 2089]<br/>class = Lettres>, fillcolor="#39e58199"] ;
393 -> 394 ;
395 [label=<polysémie &le; 0.31<br/>gini = 0.477<br/>samples = 10119<br/>value = [1111, 6926, 2082]<br/>class = Lettres>, fillcolor="#39e5819a"] ;
394 -> 395 ;
396 [label=<emprunt &le; 0.401<br/>gini = 0.477<br/>samples = 10111<br/>value = [1111, 6925, 2075]<br/>class = Lettres>, fillcolor="#39e5819a"] ;
395 -> 396 ;
397 [label=<complexité &le; 0.231<br/>gini = 0.476<br/>samples = 10103<br/>value = [1111, 6924, 2068]<br/>class = Lettres>, fillcolor="#39e5819a"] ;
396 -> 397 ;
398 [label=<dialogue &le; 0.321<br/>gini = 0.475<br/>samples = 10087<br/>value = [1104, 6921, 2062]<br/>class = Lettres>, fillcolor="#39e5819a"] ;
397 -> 398 ;
399 [label=<acoustique &le; 0.117<br/>gini = 0.475<br/>samples = 10068<br/>value = [1103, 6915, 2050]<br/>class = Lettres>, fillcolor="#39e5819b"] ;
398 -> 399 ;
400 [label=<rhétorique &le; 0.234<br/>gini = 0.474<br/>samples = 10060<br/>value = [1098, 6915, 2047]<br/>class = Lettres>, fillcolor="#39e5819b"] ;
399 -> 400 ;
401 [label=<imagerie &le; 0.288<br/>gini = 0.473<br/>samples = 10016<br/>value = [1098, 6893, 2025]<br/>class = Lettres>, fillcolor="#39e5819b"] ;
400 -> 401 ;
402 [label=<énergie &le; 0.284<br/>gini = 0.473<br/>samples = 10009<br/>value = [1093, 6893, 2023]<br/>class = Lettres>, fillcolor="#39e5819c"] ;
401 -> 402 ;
403 [label=<évaluer &le; 0.14<br/>gini = 0.472<br/>samples = 10001<br/>value = [1087, 6892, 2022]<br/>class = Lettres>, fillcolor="#39e5819c"] ;
402 -> 403 ;
404 [label=<ethnolinguistique &le; 0.106<br/>gini = 0.472<br/>samples = 9993<br/>value = [1083, 6892, 2018]<br/>class = Lettres>, fillcolor="#39e5819c"] ;
403 -> 404 ;
405 [label=<accueil &le; 0.131<br/>gini = 0.471<br/>samples = 9988<br/>value = [1083, 6892, 2013]<br/>class = Lettres>, fillcolor="#39e5819c"] ;
404 -> 405 ;
406 [label=<pertinence &le; 0.293<br/>gini = 0.471<br/>samples = 9983<br/>value = [1083, 6892, 2008]<br/>class = Lettres>, fillcolor="#39e5819c"] ;
405 -> 406 ;
407 [label=<différent &le; 0.291<br/>gini = 0.471<br/>samples = 9978<br/>value = [1083, 6892, 2003]<br/>class = Lettres>, fillcolor="#39e5819c"] ;
406 -> 407 ;
408 [label=<sanitaire &le; 0.153<br/>gini = 0.47<br/>samples = 9973<br/>value = [1083, 6892, 1998]<br/>class = Lettres>, fillcolor="#39e5819c"] ;
407 -> 408 ;
409 [label=<région &le; 0.294<br/>gini = 0.47<br/>samples = 9968<br/>value = [1083, 6892, 1993]<br/>class = Lettres>, fillcolor="#39e5819d"] ;
408 -> 409 ;
410 [label=<gbaya &le; 0.148<br/>gini = 0.47<br/>samples = 9963<br/>value = [1083, 6892, 1988]<br/>class = Lettres>, fillcolor="#39e5819d"] ;
409 -> 410 ;
411 [label=<complément &le; 0.316<br/>gini = 0.47<br/>samples = 9958<br/>value = [1083, 6892, 1983]<br/>class = Lettres>, fillcolor="#39e5819d"] ;
410 -> 411 ;
412 [label=<traductologie &le; 0.259<br/>gini = 0.469<br/>samples = 9953<br/>value = [1083, 6892, 1978]<br/>class = Lettres>, fillcolor="#39e5819d"] ;
411 -> 412 ;
413 [label=<contact &le; 0.253<br/>gini = 0.469<br/>samples = 9948<br/>value = [1083, 6892, 1973]<br/>class = Lettres>, fillcolor="#39e5819d"] ;
412 -> 413 ;
414 [label=<grammairien &le; 0.173<br/>gini = 0.469<br/>samples = 9943<br/>value = [1083, 6892, 1968]<br/>class = Lettres>, fillcolor="#39e5819d"] ;
413 -> 414 ;
415 [label=<turquie &le; 0.241<br/>gini = 0.468<br/>samples = 9938<br/>value = [1083, 6892, 1963]<br/>class = Lettres>, fillcolor="#39e5819e"] ;
414 -> 415 ;
416 [label=<imparfait &le; 0.141<br/>gini = 0.468<br/>samples = 9933<br/>value = [1083, 6892, 1958]<br/>class = Lettres>, fillcolor="#39e5819e"] ;
415 -> 416 ;
417 [label=<accentuel &le; 0.139<br/>gini = 0.467<br/>samples = 9928<br/>value = [1083, 6892, 1953]<br/>class = Lettres>, fillcolor="#39e5819e"] ;
416 -> 417 ;
418 [label=<sarde &le; 0.211<br/>gini = 0.467<br/>samples = 9923<br/>value = [1083, 6892, 1948]<br/>class = Lettres>, fillcolor="#39e5819e"] ;
417 -> 418 ;
419 [label=<consonantique &le; 0.139<br/>gini = 0.467<br/>samples = 9918<br/>value = [1083, 6892, 1943]<br/>class = Lettres>, fillcolor="#39e5819e"] ;
418 -> 419 ;
420 [label=<diachronie &le; 0.14<br/>gini = 0.466<br/>samples = 9913<br/>value = [1083, 6892, 1938]<br/>class = Lettres>, fillcolor="#39e5819e"] ;
419 -> 420 ;
421 [label=<onomastique &le; 0.388<br/>gini = 0.466<br/>samples = 9908<br/>value = [1083, 6892, 1933]<br/>class = Lettres>, fillcolor="#39e5819f"] ;
420 -> 421 ;
422 [label=<meigret &le; 0.137<br/>gini = 0.466<br/>samples = 9903<br/>value = [1083, 6892, 1928]<br/>class = Lettres>, fillcolor="#39e5819f"] ;
421 -> 422 ;
423 [label=<alternance &le; 0.158<br/>gini = 0.465<br/>samples = 9898<br/>value = [1083, 6892, 1923]<br/>class = Lettres>, fillcolor="#39e5819f"] ;
422 -> 423 ;
424 [label=<do &le; 0.238<br/>gini = 0.465<br/>samples = 9893<br/>value = [1083, 6892, 1918]<br/>class = Lettres>, fillcolor="#39e5819f"] ;
423 -> 424 ;
425 [label=<expérience &le; 0.199<br/>gini = 0.464<br/>samples = 9883<br/>value = [1080, 6891, 1912]<br/>class = Lettres>, fillcolor="#39e5819f"] ;
424 -> 425 ;
426 [label=<scientifique &le; 0.286<br/>gini = 0.463<br/>samples = 9817<br/>value = [1062, 6860, 1895]<br/>class = Lettres>, fillcolor="#39e581a0"] ;
425 -> 426 ;
427 [label=<échelle &le; 0.134<br/>gini = 0.462<br/>samples = 9800<br/>value = [1055, 6856, 1889]<br/>class = Lettres>, fillcolor="#39e581a0"] ;
426 -> 427 ;
428 [label=<composer &le; 0.188<br/>gini = 0.461<br/>samples = 9790<br/>value = [1048, 6853, 1889]<br/>class = Lettres>, fillcolor="#39e581a0"] ;
427 -> 428 ;
429 [label=<responsabilité &le; 0.136<br/>gini = 0.461<br/>samples = 9784<br/>value = [1047, 6853, 1884]<br/>class = Lettres>, fillcolor="#39e581a0"] ;
428 -> 429 ;
430 [label=<formalisation &le; 0.364<br/>gini = 0.46<br/>samples = 9778<br/>value = [1046, 6853, 1879]<br/>class = Lettres>, fillcolor="#39e581a1"] ;
429 -> 430 ;
431 [label=<esthétique &le; 0.082<br/>gini = 0.46<br/>samples = 9772<br/>value = [1045, 6853, 1874]<br/>class = Lettres>, fillcolor="#39e581a1"] ;
430 -> 431 ;
432 [label=<se &le; 0.297<br/>gini = 0.461<br/>samples = 9720<br/>value = [1045, 6803, 1872]<br/>class = Lettres>, fillcolor="#39e581a0"] ;
431 -> 432 ;
433 [label=<morphème &le; 0.156<br/>gini = 0.46<br/>samples = 9689<br/>value = [1038, 6792, 1859]<br/>class = Lettres>, fillcolor="#39e581a1"] ;
432 -> 433 ;
434 [label=<analogie &le; 0.371<br/>gini = 0.46<br/>samples = 9682<br/>value = [1038, 6791, 1853]<br/>class = Lettres>, fillcolor="#39e581a1"] ;
433 -> 434 ;
435 [label=<usager &le; 0.13<br/>gini = 0.459<br/>samples = 9671<br/>value = [1038, 6788, 1845]<br/>class = Lettres>, fillcolor="#39e581a1"] ;
434 -> 435 ;
436 [label=<ocaml &le; 0.21<br/>gini = 0.459<br/>samples = 9667<br/>value = [1034, 6788, 1845]<br/>class = Lettres>, fillcolor="#39e581a1"] ;
435 -> 436 ;
437 [label=<entité &le; 0.194<br/>gini = 0.459<br/>samples = 9663<br/>value = [1030, 6788, 1845]<br/>class = Lettres>, fillcolor="#39e581a1"] ;
436 -> 437 ;
438 [label=<permutation &le; 0.174<br/>gini = 0.458<br/>samples = 9659<br/>value = [1026, 6788, 1845]<br/>class = Lettres>, fillcolor="#39e581a1"] ;
437 -> 438 ;
439 [label=<dédier &le; 0.15<br/>gini = 0.458<br/>samples = 9655<br/>value = [1022, 6788, 1845]<br/>class = Lettres>, fillcolor="#39e581a1"] ;
438 -> 439 ;
440 [label=<treillis &le; 0.216<br/>gini = 0.458<br/>samples = 9651<br/>value = [1018, 6788, 1845]<br/>class = Lettres>, fillcolor="#39e581a1"] ;
439 -> 440 ;
441 [label=<mobile &le; 0.224<br/>gini = 0.457<br/>samples = 9647<br/>value = [1014, 6788, 1845]<br/>class = Lettres>, fillcolor="#39e581a2"] ;
440 -> 441 ;
442 [label=<orienter &le; 0.197<br/>gini = 0.457<br/>samples = 9643<br/>value = [1010, 6788, 1845]<br/>class = Lettres>, fillcolor="#39e581a2"] ;
441 -> 442 ;
443 [label=<simuler &le; 0.406<br/>gini = 0.457<br/>samples = 9639<br/>value = [1006, 6788, 1845]<br/>class = Lettres>, fillcolor="#39e581a2"] ;
442 -> 443 ;
444 [label=<dépendance &le; 0.153<br/>gini = 0.456<br/>samples = 9635<br/>value = [1002, 6788, 1845]<br/>class = Lettres>, fillcolor="#39e581a2"] ;
443 -> 444 ;
445 [label=<symétrie &le; 0.396<br/>gini = 0.456<br/>samples = 9631<br/>value = [998, 6788, 1845]<br/>class = Lettres>, fillcolor="#39e581a2"] ;
444 -> 445 ;
446 [label=<coût &le; 0.18<br/>gini = 0.455<br/>samples = 9627<br/>value = [994, 6788, 1845]<br/>class = Lettres>, fillcolor="#39e581a2"] ;
445 -> 446 ;
447 [label=<partiellement &le; 0.181<br/>gini = 0.455<br/>samples = 9623<br/>value = [990, 6788, 1845]<br/>class = Lettres>, fillcolor="#39e581a2"] ;
446 -> 447 ;
448 [label=<cube &le; 0.19<br/>gini = 0.455<br/>samples = 9619<br/>value = [986, 6788, 1845]<br/>class = Lettres>, fillcolor="#39e581a2"] ;
447 -> 448 ;
449 [label=<biométrie &le; 0.262<br/>gini = 0.454<br/>samples = 9615<br/>value = [982, 6788, 1845]<br/>class = Lettres>, fillcolor="#39e581a2"] ;
448 -> 449 ;
450 [label=<circuit &le; 0.141<br/>gini = 0.454<br/>samples = 9611<br/>value = [978, 6788, 1845]<br/>class = Lettres>, fillcolor="#39e581a2"] ;
449 -> 450 ;
451 [label=<géométrique &le; 0.137<br/>gini = 0.454<br/>samples = 9607<br/>value = [974, 6788, 1845]<br/>class = Lettres>, fillcolor="#39e581a2"] ;
450 -> 451 ;
452 [label=<statistique &le; 0.112<br/>gini = 0.453<br/>samples = 9603<br/>value = [970, 6788, 1845]<br/>class = Lettres>, fillcolor="#39e581a2"] ;
451 -> 452 ;
453 [label=<métrique &le; 0.154<br/>gini = 0.453<br/>samples = 9594<br/>value = [968, 6787, 1839]<br/>class = Lettres>, fillcolor="#39e581a3"] ;
452 -> 453 ;
454 [label=<stratégie &le; 0.358<br/>gini = 0.452<br/>samples = 9585<br/>value = [966, 6786, 1833]<br/>class = Lettres>, fillcolor="#39e581a3"] ;
453 -> 454 ;
455 [label=<acte &le; 0.319<br/>gini = 0.451<br/>samples = 9573<br/>value = [962, 6784, 1827]<br/>class = Lettres>, fillcolor="#39e581a3"] ;
454 -> 455 ;
456 [label=<style &le; 0.387<br/>gini = 0.451<br/>samples = 9562<br/>value = [960, 6782, 1820]<br/>class = Lettres>, fillcolor="#39e581a3"] ;
455 -> 456 ;
457 [label=<an &le; 0.375<br/>gini = 0.45<br/>samples = 9534<br/>value = [960, 6769, 1805]<br/>class = Lettres>, fillcolor="#39e581a4"] ;
456 -> 457 ;
458 [label=<automate &le; 0.375<br/>gini = 0.449<br/>samples = 9526<br/>value = [959, 6768, 1799]<br/>class = Lettres>, fillcolor="#39e581a4"] ;
457 -> 458 ;
459 [label=<identifier &le; 0.171<br/>gini = 0.449<br/>samples = 9520<br/>value = [954, 6767, 1799]<br/>class = Lettres>, fillcolor="#39e581a4"] ;
458 -> 459 ;
460 [label=<discrimination &le; 0.124<br/>gini = 0.448<br/>samples = 9514<br/>value = [950, 6767, 1797]<br/>class = Lettres>, fillcolor="#39e581a4"] ;
459 -> 460 ;
461 [label=<approximation &le; 0.15<br/>gini = 0.448<br/>samples = 9508<br/>value = [946, 6767, 1795]<br/>class = Lettres>, fillcolor="#39e581a4"] ;
460 -> 461 ;
462 [label=<mieux &le; 0.419<br/>gini = 0.447<br/>samples = 9503<br/>value = [942, 6767, 1794]<br/>class = Lettres>, fillcolor="#39e581a4"] ;
461 -> 462 ;
463 [label=<model &le; 0.137<br/>gini = 0.447<br/>samples = 9498<br/>value = [938, 6767, 1793]<br/>class = Lettres>, fillcolor="#39e581a5"] ;
462 -> 463 ;
464 [label=<production &le; 0.177<br/>gini = 0.447<br/>samples = 9493<br/>value = [934, 6767, 1792]<br/>class = Lettres>, fillcolor="#39e581a5"] ;
463 -> 464 ;
465 [label=<organisation &le; 0.25<br/>gini = 0.446<br/>samples = 9468<br/>value = [929, 6758, 1781]<br/>class = Lettres>, fillcolor="#39e581a5"] ;
464 -> 465 ;
466 [label=<visuel &le; 0.332<br/>gini = 0.445<br/>samples = 9459<br/>value = [925, 6757, 1777]<br/>class = Lettres>, fillcolor="#39e581a5"] ;
465 -> 466 ;
467 [label=<chercheur &le; 0.129<br/>gini = 0.444<br/>samples = 9448<br/>value = [920, 6755, 1773]<br/>class = Lettres>, fillcolor="#39e581a6"] ;
466 -> 467 ;
468 [label=<auteur &le; 0.077<br/>gini = 0.443<br/>samples = 9437<br/>value = [915, 6753, 1769]<br/>class = Lettres>, fillcolor="#39e581a6"] ;
467 -> 468 ;
469 [label=<formalisme &le; 0.36<br/>gini = 0.445<br/>samples = 9385<br/>value = [915, 6703, 1767]<br/>class = Lettres>, fillcolor="#39e581a5"] ;
468 -> 469 ;
470 [label=<localisation &le; 0.295<br/>gini = 0.444<br/>samples = 9379<br/>value = [913, 6703, 1763]<br/>class = Lettres>, fillcolor="#39e581a5"] ;
469 -> 470 ;
471 [label=<aire &le; 0.106<br/>gini = 0.444<br/>samples = 9373<br/>value = [911, 6703, 1759]<br/>class = Lettres>, fillcolor="#39e581a6"] ;
470 -> 471 ;
472 [label=<partiel &le; 0.157<br/>gini = 0.443<br/>samples = 9367<br/>value = [909, 6703, 1755]<br/>class = Lettres>, fillcolor="#39e581a6"] ;
471 -> 472 ;
473 [label=<particulier &le; 0.124<br/>gini = 0.443<br/>samples = 9361<br/>value = [907, 6703, 1751]<br/>class = Lettres>, fillcolor="#39e581a6"] ;
472 -> 473 ;
474 [label=<problématique &le; 0.284<br/>gini = 0.442<br/>samples = 9355<br/>value = [905, 6703, 1747]<br/>class = Lettres>, fillcolor="#39e581a6"] ;
473 -> 474 ;
475 [label=<intégration &le; 0.095<br/>gini = 0.442<br/>samples = 9340<br/>value = [904, 6698, 1738]<br/>class = Lettres>, fillcolor="#39e581a6"] ;
474 -> 475 ;
476 [label=<dysarthrie &le; 0.137<br/>gini = 0.441<br/>samples = 9325<br/>value = [898, 6694, 1733]<br/>class = Lettres>, fillcolor="#39e581a7"] ;
475 -> 476 ;
477 [label=<temporalité &le; 0.406<br/>gini = 0.441<br/>samples = 9321<br/>value = [898, 6694, 1729]<br/>class = Lettres>, fillcolor="#39e581a7"] ;
476 -> 477 ;
478 [label=<néologie &le; 0.223<br/>gini = 0.44<br/>samples = 9317<br/>value = [898, 6694, 1725]<br/>class = Lettres>, fillcolor="#39e581a7"] ;
477 -> 478 ;
479 [label=<indo &le; 0.361<br/>gini = 0.44<br/>samples = 9313<br/>value = [898, 6694, 1721]<br/>class = Lettres>, fillcolor="#39e581a7"] ;
478 -> 479 ;
480 [label=<schwa &le; 0.234<br/>gini = 0.44<br/>samples = 9309<br/>value = [898, 6694, 1717]<br/>class = Lettres>, fillcolor="#39e581a7"] ;
479 -> 480 ;
481 [label=<calédonie &le; 0.133<br/>gini = 0.439<br/>samples = 9305<br/>value = [898, 6694, 1713]<br/>class = Lettres>, fillcolor="#39e581a7"] ;
480 -> 481 ;
482 [label=<aller &le; 0.132<br/>gini = 0.439<br/>samples = 9301<br/>value = [898, 6694, 1709]<br/>class = Lettres>, fillcolor="#39e581a7"] ;
481 -> 482 ;
483 [label=<exemple &le; 0.229<br/>gini = 0.438<br/>samples = 9287<br/>value = [896, 6690, 1701]<br/>class = Lettres>, fillcolor="#39e581a8"] ;
482 -> 483 ;
484 [label=<construire &le; 0.267<br/>gini = 0.437<br/>samples = 9251<br/>value = [891, 6674, 1686]<br/>class = Lettres>, fillcolor="#39e581a8"] ;
483 -> 484 ;
485 [label=<dialectologie &le; 0.218<br/>gini = 0.436<br/>samples = 9243<br/>value = [890, 6673, 1680]<br/>class = Lettres>, fillcolor="#39e581a8"] ;
484 -> 485 ;
486 [label=<déterminant &le; 0.205<br/>gini = 0.436<br/>samples = 9239<br/>value = [890, 6673, 1676]<br/>class = Lettres>, fillcolor="#39e581a8"] ;
485 -> 486 ;
487 [label=<attitude &le; 0.148<br/>gini = 0.436<br/>samples = 9235<br/>value = [890, 6673, 1672]<br/>class = Lettres>, fillcolor="#39e581a9"] ;
486 -> 487 ;
488 [label=<lexicométrie &le; 0.283<br/>gini = 0.435<br/>samples = 9231<br/>value = [890, 6673, 1668]<br/>class = Lettres>, fillcolor="#39e581a9"] ;
487 -> 488 ;
489 [label=<variété &le; 0.261<br/>gini = 0.435<br/>samples = 9227<br/>value = [890, 6673, 1664]<br/>class = Lettres>, fillcolor="#39e581a9"] ;
488 -> 489 ;
490 [label=<morphologie &le; 0.406<br/>gini = 0.435<br/>samples = 9223<br/>value = [890, 6673, 1660]<br/>class = Lettres>, fillcolor="#39e581a9"] ;
489 -> 490 ;
491 [label=<méthodologie &le; 0.346<br/>gini = 0.434<br/>samples = 9219<br/>value = [890, 6673, 1656]<br/>class = Lettres>, fillcolor="#39e581a9"] ;
490 -> 491 ;
492 [label=<insulte &le; 0.147<br/>gini = 0.434<br/>samples = 9215<br/>value = [890, 6673, 1652]<br/>class = Lettres>, fillcolor="#39e581a9"] ;
491 -> 492 ;
493 [label=<ajout &le; 0.156<br/>gini = 0.434<br/>samples = 9211<br/>value = [890, 6673, 1648]<br/>class = Lettres>, fillcolor="#39e581a9"] ;
492 -> 493 ;
494 [label=<réflexivité &le; 0.318<br/>gini = 0.433<br/>samples = 9207<br/>value = [890, 6673, 1644]<br/>class = Lettres>, fillcolor="#39e581aa"] ;
493 -> 494 ;
495 [label=<locution &le; 0.443<br/>gini = 0.433<br/>samples = 9203<br/>value = [890, 6673, 1640]<br/>class = Lettres>, fillcolor="#39e581aa"] ;
494 -> 495 ;
496 [label=<stéréotype &le; 0.35<br/>gini = 0.433<br/>samples = 9199<br/>value = [890, 6673, 1636]<br/>class = Lettres>, fillcolor="#39e581aa"] ;
495 -> 496 ;
497 [label=<mythe &le; 0.185<br/>gini = 0.432<br/>samples = 9195<br/>value = [890, 6673, 1632]<br/>class = Lettres>, fillcolor="#39e581aa"] ;
496 -> 497 ;
498 [label=<plus &le; 0.282<br/>gini = 0.434<br/>samples = 9126<br/>value = [889, 6608, 1629]<br/>class = Lettres>, fillcolor="#39e581a9"] ;
497 -> 498 ;
499 [label=<étayage &le; 0.172<br/>gini = 0.433<br/>samples = 9111<br/>value = [882, 6604, 1625]<br/>class = Lettres>, fillcolor="#39e581aa"] ;
498 -> 499 ;
500 [label=<déterminer &le; 0.206<br/>gini = 0.433<br/>samples = 9107<br/>value = [882, 6604, 1621]<br/>class = Lettres>, fillcolor="#39e581aa"] ;
499 -> 500 ;
501 [label=<paradigme &le; 0.456<br/>gini = 0.433<br/>samples = 9103<br/>value = [882, 6604, 1617]<br/>class = Lettres>, fillcolor="#39e581aa"] ;
500 -> 501 ;
502 [label=<espace &le; 0.419<br/>gini = 0.432<br/>samples = 9097<br/>value = [879, 6604, 1614]<br/>class = Lettres>, fillcolor="#39e581aa"] ;
501 -> 502 ;
503 [label=<accent &le; 0.124<br/>gini = 0.432<br/>samples = 9089<br/>value = [877, 6603, 1609]<br/>class = Lettres>, fillcolor="#39e581aa"] ;
502 -> 503 ;
504 [label=<anaphore &le; 0.192<br/>gini = 0.431<br/>samples = 9079<br/>value = [877, 6600, 1602]<br/>class = Lettres>, fillcolor="#39e581aa"] ;
503 -> 504 ;
505 [label=<catégorisation &le; 0.095<br/>gini = 0.431<br/>samples = 9074<br/>value = [876, 6600, 1598]<br/>class = Lettres>, fillcolor="#39e581ab"] ;
504 -> 505 ;
506 [label=<imaginaire &le; 0.079<br/>gini = 0.43<br/>samples = 9069<br/>value = [875, 6600, 1594]<br/>class = Lettres>, fillcolor="#39e581ab"] ;
505 -> 506 ;
507 [label=<défi &le; 0.333<br/>gini = 0.432<br/>samples = 9022<br/>value = [875, 6554, 1593]<br/>class = Lettres>, fillcolor="#39e581aa"] ;
506 -> 507 ;
508 [label=<objectif &le; 0.122<br/>gini = 0.431<br/>samples = 9017<br/>value = [871, 6554, 1592]<br/>class = Lettres>, fillcolor="#39e581aa"] ;
507 -> 508 ;
509 [label=<montauban &le; 0.168<br/>gini = 0.431<br/>samples = 9011<br/>value = [869, 6554, 1588]<br/>class = Lettres>, fillcolor="#39e581ab"] ;
508 -> 509 ;
510 [label=<ancien &le; 0.343<br/>gini = 0.43<br/>samples = 9005<br/>value = [869, 6553, 1583]<br/>class = Lettres>, fillcolor="#39e581ab"] ;
509 -> 510 ;
511 [label=<proposition &le; 0.257<br/>gini = 0.43<br/>samples = 8997<br/>value = [869, 6551, 1577]<br/>class = Lettres>, fillcolor="#39e581ab"] ;
510 -> 511 ;
512 [label=<événement &le; 0.366<br/>gini = 0.429<br/>samples = 8991<br/>value = [869, 6550, 1572]<br/>class = Lettres>, fillcolor="#39e581ab"] ;
511 -> 512 ;
513 [label=<absence &le; 0.3<br/>gini = 0.429<br/>samples = 8985<br/>value = [869, 6549, 1567]<br/>class = Lettres>, fillcolor="#39e581ab"] ;
512 -> 513 ;
514 [label=<plan &le; 0.146<br/>gini = 0.429<br/>samples = 8979<br/>value = [869, 6548, 1562]<br/>class = Lettres>, fillcolor="#39e581ab"] ;
513 -> 514 ;
515 [label=<thème &le; 0.344<br/>gini = 0.428<br/>samples = 8965<br/>value = [866, 6544, 1555]<br/>class = Lettres>, fillcolor="#39e581ac"] ;
514 -> 515 ;
516 [label=<consommation &le; 0.258<br/>gini = 0.427<br/>samples = 8957<br/>value = [863, 6543, 1551]<br/>class = Lettres>, fillcolor="#39e581ac"] ;
515 -> 516 ;
517 [label=<patient &le; 0.16<br/>gini = 0.427<br/>samples = 8950<br/>value = [858, 6541, 1551]<br/>class = Lettres>, fillcolor="#39e581ac"] ;
516 -> 517 ;
518 [label=<twitter &le; 0.196<br/>gini = 0.426<br/>samples = 8945<br/>value = [855, 6541, 1549]<br/>class = Lettres>, fillcolor="#39e581ac"] ;
517 -> 518 ;
519 [label=<inter &le; 0.136<br/>gini = 0.426<br/>samples = 8940<br/>value = [852, 6541, 1547]<br/>class = Lettres>, fillcolor="#39e581ac"] ;
518 -> 519 ;
520 [label=<créole &le; 0.284<br/>gini = 0.425<br/>samples = 8935<br/>value = [849, 6541, 1545]<br/>class = Lettres>, fillcolor="#39e581ac"] ;
519 -> 520 ;
521 [label=<informaticien &le; 0.248<br/>gini = 0.424<br/>samples = 8921<br/>value = [848, 6536, 1537]<br/>class = Lettres>, fillcolor="#39e581ad"] ;
520 -> 521 ;
522 [label=<procédé &le; 0.352<br/>gini = 0.424<br/>samples = 8918<br/>value = [845, 6536, 1537]<br/>class = Lettres>, fillcolor="#39e581ad"] ;
521 -> 522 ;
523 [label=<rendre &le; 0.3<br/>gini = 0.424<br/>samples = 8915<br/>value = [842, 6536, 1537]<br/>class = Lettres>, fillcolor="#39e581ad"] ;
522 -> 523 ;
524 [label=<détecter &le; 0.187<br/>gini = 0.424<br/>samples = 8912<br/>value = [839, 6536, 1537]<br/>class = Lettres>, fillcolor="#39e581ad"] ;
523 -> 524 ;
525 [label=<stabilisation &le; 0.443<br/>gini = 0.423<br/>samples = 8909<br/>value = [836, 6536, 1537]<br/>class = Lettres>, fillcolor="#39e581ad"] ;
524 -> 525 ;
526 [label=<retard &le; 0.143<br/>gini = 0.423<br/>samples = 8906<br/>value = [833, 6536, 1537]<br/>class = Lettres>, fillcolor="#39e581ad"] ;
525 -> 526 ;
527 [label=<using &le; 0.087<br/>gini = 0.423<br/>samples = 8903<br/>value = [830, 6536, 1537]<br/>class = Lettres>, fillcolor="#39e581ad"] ;
526 -> 527 ;
528 [label=<802 &le; 0.143<br/>gini = 0.422<br/>samples = 8900<br/>value = [827, 6536, 1537]<br/>class = Lettres>, fillcolor="#39e581ad"] ;
527 -> 528 ;
529 [label=<mathématicien &le; 0.455<br/>gini = 0.422<br/>samples = 8897<br/>value = [824, 6536, 1537]<br/>class = Lettres>, fillcolor="#39e581ad"] ;
528 -> 529 ;
530 [label=<courbe &le; 0.165<br/>gini = 0.422<br/>samples = 8894<br/>value = [821, 6536, 1537]<br/>class = Lettres>, fillcolor="#39e581ad"] ;
529 -> 530 ;
531 [label=<magnétique &le; 0.173<br/>gini = 0.421<br/>samples = 8891<br/>value = [818, 6536, 1537]<br/>class = Lettres>, fillcolor="#39e581ad"] ;
530 -> 531 ;
532 [label=<deft &le; 0.194<br/>gini = 0.421<br/>samples = 8888<br/>value = [815, 6536, 1537]<br/>class = Lettres>, fillcolor="#39e581ad"] ;
531 -> 532 ;
533 [label=<capacitated &le; 0.193<br/>gini = 0.421<br/>samples = 8885<br/>value = [812, 6536, 1537]<br/>class = Lettres>, fillcolor="#39e581ad"] ;
532 -> 533 ;
534 [label=<grille &le; 0.098<br/>gini = 0.42<br/>samples = 8882<br/>value = [809, 6536, 1537]<br/>class = Lettres>, fillcolor="#39e581ae"] ;
533 -> 534 ;
535 [label=<participatif &le; 0.144<br/>gini = 0.42<br/>samples = 8879<br/>value = [806, 6536, 1537]<br/>class = Lettres>, fillcolor="#39e581ae"] ;
534 -> 535 ;
536 [label=<hypergraphes &le; 0.215<br/>gini = 0.42<br/>samples = 8876<br/>value = [803, 6536, 1537]<br/>class = Lettres>, fillcolor="#39e581ae"] ;
535 -> 536 ;
537 [label=<contenu &le; 0.367<br/>gini = 0.419<br/>samples = 8873<br/>value = [800, 6536, 1537]<br/>class = Lettres>, fillcolor="#39e581ae"] ;
536 -> 537 ;
538 [label=<moodle &le; 0.145<br/>gini = 0.419<br/>samples = 8870<br/>value = [797, 6536, 1537]<br/>class = Lettres>, fillcolor="#39e581ae"] ;
537 -> 538 ;
539 [label=<java &le; 0.216<br/>gini = 0.419<br/>samples = 8867<br/>value = [794, 6536, 1537]<br/>class = Lettres>, fillcolor="#39e581ae"] ;
538 -> 539 ;
540 [label=<taille &le; 0.319<br/>gini = 0.418<br/>samples = 8864<br/>value = [791, 6536, 1537]<br/>class = Lettres>, fillcolor="#39e581ae"] ;
539 -> 540 ;
541 [label=<musicali &le; 0.131<br/>gini = 0.418<br/>samples = 8861<br/>value = [788, 6536, 1537]<br/>class = Lettres>, fillcolor="#39e581ae"] ;
540 -> 541 ;
542 [label=<freinage &le; 0.205<br/>gini = 0.418<br/>samples = 8858<br/>value = [785, 6536, 1537]<br/>class = Lettres>, fillcolor="#39e581ae"] ;
541 -> 542 ;
543 [label=<score &le; 0.206<br/>gini = 0.417<br/>samples = 8855<br/>value = [782, 6536, 1537]<br/>class = Lettres>, fillcolor="#39e581ae"] ;
542 -> 543 ;
544 [label=<detection &le; 0.156<br/>gini = 0.417<br/>samples = 8852<br/>value = [779, 6536, 1537]<br/>class = Lettres>, fillcolor="#39e581ae"] ;
543 -> 544 ;
545 [label=<robustesse &le; 0.178<br/>gini = 0.417<br/>samples = 8849<br/>value = [776, 6536, 1537]<br/>class = Lettres>, fillcolor="#39e581ae"] ;
544 -> 545 ;
546 [label=<compilation &le; 0.58<br/>gini = 0.416<br/>samples = 8846<br/>value = [773, 6536, 1537]<br/>class = Lettres>, fillcolor="#39e581ae"] ;
545 -> 546 ;
547 [label=<signature &le; 0.203<br/>gini = 0.416<br/>samples = 8843<br/>value = [770, 6536, 1537]<br/>class = Lettres>, fillcolor="#39e581ae"] ;
546 -> 547 ;
548 [label=<neurone &le; 0.117<br/>gini = 0.416<br/>samples = 8840<br/>value = [767, 6536, 1537]<br/>class = Lettres>, fillcolor="#39e581af"] ;
547 -> 548 ;
549 [label=<network &le; 0.147<br/>gini = 0.415<br/>samples = 8837<br/>value = [764, 6536, 1537]<br/>class = Lettres>, fillcolor="#39e581af"] ;
548 -> 549 ;
550 [label=<manipulation &le; 0.362<br/>gini = 0.415<br/>samples = 8834<br/>value = [761, 6536, 1537]<br/>class = Lettres>, fillcolor="#39e581af"] ;
549 -> 550 ;
551 [label=<pollution &le; 0.169<br/>gini = 0.415<br/>samples = 8831<br/>value = [758, 6536, 1537]<br/>class = Lettres>, fillcolor="#39e581af"] ;
550 -> 551 ;
552 [label=<smartphones &le; 0.175<br/>gini = 0.414<br/>samples = 8828<br/>value = [755, 6536, 1537]<br/>class = Lettres>, fillcolor="#39e581af"] ;
551 -> 552 ;
553 [label=<pilotage &le; 0.112<br/>gini = 0.414<br/>samples = 8825<br/>value = [752, 6536, 1537]<br/>class = Lettres>, fillcolor="#39e581af"] ;
552 -> 553 ;
554 [label=<computer &le; 0.211<br/>gini = 0.414<br/>samples = 8822<br/>value = [749, 6536, 1537]<br/>class = Lettres>, fillcolor="#39e581af"] ;
553 -> 554 ;
555 [label=<matrice &le; 0.133<br/>gini = 0.413<br/>samples = 8819<br/>value = [746, 6536, 1537]<br/>class = Lettres>, fillcolor="#39e581af"] ;
554 -> 555 ;
556 [label=<initiation &le; 0.508<br/>gini = 0.413<br/>samples = 8812<br/>value = [742, 6535, 1535]<br/>class = Lettres>, fillcolor="#39e581af"] ;
555 -> 556 ;
557 [label=<algorithmique &le; 0.246<br/>gini = 0.412<br/>samples = 8809<br/>value = [739, 6535, 1535]<br/>class = Lettres>, fillcolor="#39e581af"] ;
556 -> 557 ;
558 [label=<es &le; 0.275<br/>gini = 0.412<br/>samples = 8806<br/>value = [736, 6535, 1535]<br/>class = Lettres>, fillcolor="#39e581af"] ;
557 -> 558 ;
559 [label=<puce &le; 0.31<br/>gini = 0.412<br/>samples = 8803<br/>value = [733, 6535, 1535]<br/>class = Lettres>, fillcolor="#39e581af"] ;
558 -> 559 ;
560 [label=<rechercher &le; 0.385<br/>gini = 0.411<br/>samples = 8800<br/>value = [730, 6535, 1535]<br/>class = Lettres>, fillcolor="#39e581af"] ;
559 -> 560 ;
561 [label=<mobiles &le; 0.159<br/>gini = 0.411<br/>samples = 8797<br/>value = [727, 6535, 1535]<br/>class = Lettres>, fillcolor="#39e581b0"] ;
560 -> 561 ;
562 [label=<modulaire &le; 0.182<br/>gini = 0.411<br/>samples = 8794<br/>value = [724, 6535, 1535]<br/>class = Lettres>, fillcolor="#39e581b0"] ;
561 -> 562 ;
563 [label=<génome &le; 0.137<br/>gini = 0.41<br/>samples = 8791<br/>value = [721, 6535, 1535]<br/>class = Lettres>, fillcolor="#39e581b0"] ;
562 -> 563 ;
564 [label=<télédétection &le; 0.163<br/>gini = 0.41<br/>samples = 8788<br/>value = [718, 6535, 1535]<br/>class = Lettres>, fillcolor="#39e581b0"] ;
563 -> 564 ;
565 [label=<based &le; 0.133<br/>gini = 0.409<br/>samples = 8785<br/>value = [715, 6535, 1535]<br/>class = Lettres>, fillcolor="#39e581b0"] ;
564 -> 565 ;
566 [label=<polynôme &le; 0.208<br/>gini = 0.409<br/>samples = 8782<br/>value = [712, 6535, 1535]<br/>class = Lettres>, fillcolor="#39e581b0"] ;
565 -> 566 ;
567 [label=<équation &le; 0.442<br/>gini = 0.409<br/>samples = 8779<br/>value = [709, 6535, 1535]<br/>class = Lettres>, fillcolor="#39e581b0"] ;
566 -> 567 ;
568 [label=<opération &le; 0.218<br/>gini = 0.408<br/>samples = 8776<br/>value = [706, 6535, 1535]<br/>class = Lettres>, fillcolor="#39e581b0"] ;
567 -> 568 ;
569 [label=<moléculaire &le; 0.236<br/>gini = 0.408<br/>samples = 8773<br/>value = [703, 6535, 1535]<br/>class = Lettres>, fillcolor="#39e581b0"] ;
568 -> 569 ;
570 [label=<décision &le; 0.146<br/>gini = 0.408<br/>samples = 8770<br/>value = [700, 6535, 1535]<br/>class = Lettres>, fillcolor="#39e581b0"] ;
569 -> 570 ;
571 [label=<inventeur &le; 0.231<br/>gini = 0.407<br/>samples = 8767<br/>value = [697, 6535, 1535]<br/>class = Lettres>, fillcolor="#39e581b0"] ;
570 -> 571 ;
572 [label=<généraliser &le; 0.287<br/>gini = 0.407<br/>samples = 8764<br/>value = [694, 6535, 1535]<br/>class = Lettres>, fillcolor="#39e581b0"] ;
571 -> 572 ;
573 [label=<classement &le; 0.342<br/>gini = 0.407<br/>samples = 8759<br/>value = [690, 6534, 1535]<br/>class = Lettres>, fillcolor="#39e581b0"] ;
572 -> 573 ;
574 [label=<guider &le; 0.134<br/>gini = 0.406<br/>samples = 8754<br/>value = [686, 6533, 1535]<br/>class = Lettres>, fillcolor="#39e581b1"] ;
573 -> 574 ;
575 [label=<substrat &le; 0.131<br/>gini = 0.406<br/>samples = 8749<br/>value = [684, 6533, 1532]<br/>class = Lettres>, fillcolor="#39e581b1"] ;
574 -> 575 ;
576 [label=<milieu &le; 0.29<br/>gini = 0.405<br/>samples = 8744<br/>value = [682, 6533, 1529]<br/>class = Lettres>, fillcolor="#39e581b1"] ;
575 -> 576 ;
577 [label=<différence &le; 0.406<br/>gini = 0.405<br/>samples = 8739<br/>value = [680, 6533, 1526]<br/>class = Lettres>, fillcolor="#39e581b1"] ;
576 -> 577 ;
578 [label=<noyau &le; 0.168<br/>gini = 0.404<br/>samples = 8734<br/>value = [678, 6533, 1523]<br/>class = Lettres>, fillcolor="#39e581b1"] ;
577 -> 578 ;
579 [label=<couplage &le; 0.175<br/>gini = 0.404<br/>samples = 8728<br/>value = [674, 6532, 1522]<br/>class = Lettres>, fillcolor="#39e581b1"] ;
578 -> 579 ;
580 [label=<propriété &le; 0.308<br/>gini = 0.403<br/>samples = 8724<br/>value = [671, 6532, 1521]<br/>class = Lettres>, fillcolor="#39e581b1"] ;
579 -> 580 ;
581 [label=<corse &le; 0.334<br/>gini = 0.403<br/>samples = 8720<br/>value = [668, 6532, 1520]<br/>class = Lettres>, fillcolor="#39e581b2"] ;
580 -> 581 ;
582 [label=<ne &le; 0.467<br/>gini = 0.402<br/>samples = 8709<br/>value = [668, 6528, 1513]<br/>class = Lettres>, fillcolor="#39e581b2"] ;
581 -> 582 ;
583 [label=<simple &le; 0.341<br/>gini = 0.402<br/>samples = 8698<br/>value = [668, 6524, 1506]<br/>class = Lettres>, fillcolor="#39e581b2"] ;
582 -> 583 ;
584 [label=<conséquence &le; 0.152<br/>gini = 0.401<br/>samples = 8689<br/>value = [666, 6522, 1501]<br/>class = Lettres>, fillcolor="#39e581b2"] ;
583 -> 584 ;
585 [label=<francophone &le; 0.331<br/>gini = 0.4<br/>samples = 8682<br/>value = [664, 6521, 1497]<br/>class = Lettres>, fillcolor="#39e581b2"] ;
584 -> 585 ;
586 [label=<groupe &le; 0.187<br/>gini = 0.4<br/>samples = 8672<br/>value = [663, 6518, 1491]<br/>class = Lettres>, fillcolor="#39e581b3"] ;
585 -> 586 ;
587 [label=<vue &le; 0.101<br/>gini = 0.399<br/>samples = 8661<br/>value = [659, 6515, 1487]<br/>class = Lettres>, fillcolor="#39e581b3"] ;
586 -> 587 ;
588 [label=<pichon &le; 0.232<br/>gini = 0.398<br/>samples = 8652<br/>value = [656, 6513, 1483]<br/>class = Lettres>, fillcolor="#39e581b3"] ;
587 -> 588 ;
589 [label=<syllabe &le; 0.31<br/>gini = 0.398<br/>samples = 8649<br/>value = [656, 6513, 1480]<br/>class = Lettres>, fillcolor="#39e581b3"] ;
588 -> 589 ;
590 [label=<postface &le; 0.192<br/>gini = 0.398<br/>samples = 8646<br/>value = [656, 6513, 1477]<br/>class = Lettres>, fillcolor="#39e581b3"] ;
589 -> 590 ;
591 [label=<frantext &le; 0.204<br/>gini = 0.397<br/>samples = 8643<br/>value = [656, 6513, 1474]<br/>class = Lettres>, fillcolor="#39e581b3"] ;
590 -> 591 ;
592 [label=<bravitude &le; 0.234<br/>gini = 0.397<br/>samples = 8640<br/>value = [656, 6513, 1471]<br/>class = Lettres>, fillcolor="#39e581b3"] ;
591 -> 592 ;
593 [label=<changer &le; 0.421<br/>gini = 0.397<br/>samples = 8637<br/>value = [656, 6513, 1468]<br/>class = Lettres>, fillcolor="#39e581b3"] ;
592 -> 593 ;
594 [label=<lexème &le; 0.142<br/>gini = 0.396<br/>samples = 8634<br/>value = [656, 6513, 1465]<br/>class = Lettres>, fillcolor="#39e581b4"] ;
593 -> 594 ;
595 [label=<énonciateur &le; 0.483<br/>gini = 0.396<br/>samples = 8631<br/>value = [656, 6513, 1462]<br/>class = Lettres>, fillcolor="#39e581b4"] ;
594 -> 595 ;
596 [label=<exquis &le; 0.212<br/>gini = 0.396<br/>samples = 8628<br/>value = [656, 6513, 1459]<br/>class = Lettres>, fillcolor="#39e581b4"] ;
595 -> 596 ;
597 [label=<ibérique &le; 0.37<br/>gini = 0.395<br/>samples = 8625<br/>value = [656, 6513, 1456]<br/>class = Lettres>, fillcolor="#39e581b4"] ;
596 -> 597 ;
598 [label=<zarma &le; 0.37<br/>gini = 0.395<br/>samples = 8622<br/>value = [656, 6513, 1453]<br/>class = Lettres>, fillcolor="#39e581b4"] ;
597 -> 598 ;
599 [label=<sn &le; 0.179<br/>gini = 0.395<br/>samples = 8619<br/>value = [656, 6513, 1450]<br/>class = Lettres>, fillcolor="#39e581b4"] ;
598 -> 599 ;
600 [label=<correct &le; 0.485<br/>gini = 0.395<br/>samples = 8616<br/>value = [656, 6513, 1447]<br/>class = Lettres>, fillcolor="#39e581b4"] ;
599 -> 600 ;
601 [label=<presque &le; 0.623<br/>gini = 0.394<br/>samples = 8613<br/>value = [656, 6513, 1444]<br/>class = Lettres>, fillcolor="#39e581b4"] ;
600 -> 601 ;
602 [label=<allaqa &le; 0.205<br/>gini = 0.394<br/>samples = 8610<br/>value = [656, 6513, 1441]<br/>class = Lettres>, fillcolor="#39e581b4"] ;
601 -> 602 ;
603 [label=<dysphonie &le; 0.296<br/>gini = 0.394<br/>samples = 8607<br/>value = [656, 6513, 1438]<br/>class = Lettres>, fillcolor="#39e581b5"] ;
602 -> 603 ;
604 [label=<maure &le; 0.403<br/>gini = 0.393<br/>samples = 8604<br/>value = [656, 6513, 1435]<br/>class = Lettres>, fillcolor="#39e581b5"] ;
603 -> 604 ;
605 [label=<approche &le; 0.069<br/>gini = 0.393<br/>samples = 8601<br/>value = [656, 6513, 1432]<br/>class = Lettres>, fillcolor="#39e581b5"] ;
604 -> 605 ;
606 [label=<tocqueville &le; 0.173<br/>gini = 0.393<br/>samples = 8598<br/>value = [656, 6513, 1429]<br/>class = Lettres>, fillcolor="#39e581b5"] ;
605 -> 606 ;
607 [label=<motivation &le; 0.384<br/>gini = 0.392<br/>samples = 8595<br/>value = [656, 6513, 1426]<br/>class = Lettres>, fillcolor="#39e581b5"] ;
606 -> 607 ;
608 [label=<stage &le; 0.383<br/>gini = 0.392<br/>samples = 8592<br/>value = [656, 6513, 1423]<br/>class = Lettres>, fillcolor="#39e581b5"] ;
607 -> 608 ;
609 [label=<hyperbase &le; 0.319<br/>gini = 0.392<br/>samples = 8589<br/>value = [656, 6513, 1420]<br/>class = Lettres>, fillcolor="#39e581b5"] ;
608 -> 609 ;
610 [label=<commercial &le; 0.145<br/>gini = 0.392<br/>samples = 8586<br/>value = [656, 6513, 1417]<br/>class = Lettres>, fillcolor="#39e581b5"] ;
609 -> 610 ;
611 [label=<taire &le; 0.549<br/>gini = 0.391<br/>samples = 8583<br/>value = [656, 6513, 1414]<br/>class = Lettres>, fillcolor="#39e581b5"] ;
610 -> 611 ;
612 [label=<euphémisme &le; 0.387<br/>gini = 0.391<br/>samples = 8580<br/>value = [656, 6513, 1411]<br/>class = Lettres>, fillcolor="#39e581b5"] ;
611 -> 612 ;
613 [label=<tables &le; 0.239<br/>gini = 0.391<br/>samples = 8577<br/>value = [656, 6513, 1408]<br/>class = Lettres>, fillcolor="#39e581b6"] ;
612 -> 613 ;
614 [label=<affaire &le; 0.5<br/>gini = 0.39<br/>samples = 8574<br/>value = [656, 6513, 1405]<br/>class = Lettres>, fillcolor="#39e581b6"] ;
613 -> 614 ;
615 [label=<littératie &le; 0.169<br/>gini = 0.39<br/>samples = 8571<br/>value = [656, 6513, 1402]<br/>class = Lettres>, fillcolor="#39e581b6"] ;
614 -> 615 ;
616 [label=<nominalisation &le; 0.184<br/>gini = 0.39<br/>samples = 8568<br/>value = [656, 6513, 1399]<br/>class = Lettres>, fillcolor="#39e581b6"] ;
615 -> 616 ;
617 [label=<hui &le; 0.351<br/>gini = 0.389<br/>samples = 8565<br/>value = [656, 6513, 1396]<br/>class = Lettres>, fillcolor="#39e581b6"] ;
616 -> 617 ;
618 [label=<peul &le; 0.131<br/>gini = 0.389<br/>samples = 8547<br/>value = [655, 6505, 1387]<br/>class = Lettres>, fillcolor="#39e581b6"] ;
617 -> 618 ;
619 [label=<tchad &le; 0.192<br/>gini = 0.388<br/>samples = 8544<br/>value = [655, 6505, 1384]<br/>class = Lettres>, fillcolor="#39e581b6"] ;
618 -> 619 ;
620 [label=<praat &le; 0.298<br/>gini = 0.388<br/>samples = 8541<br/>value = [655, 6505, 1381]<br/>class = Lettres>, fillcolor="#39e581b6"] ;
619 -> 620 ;
621 [label=<cameroun &le; 0.183<br/>gini = 0.388<br/>samples = 8538<br/>value = [655, 6505, 1378]<br/>class = Lettres>, fillcolor="#39e581b7"] ;
620 -> 621 ;
622 [label=<publicitaire &le; 0.147<br/>gini = 0.387<br/>samples = 8535<br/>value = [655, 6505, 1375]<br/>class = Lettres>, fillcolor="#39e581b7"] ;
621 -> 622 ;
623 [label=<bilinguisme &le; 0.557<br/>gini = 0.387<br/>samples = 8532<br/>value = [655, 6505, 1372]<br/>class = Lettres>, fillcolor="#39e581b7"] ;
622 -> 623 ;
624 [label=<guinée &le; 0.428<br/>gini = 0.387<br/>samples = 8529<br/>value = [655, 6505, 1369]<br/>class = Lettres>, fillcolor="#39e581b7"] ;
623 -> 624 ;
625 [label=<subordonné &le; 0.191<br/>gini = 0.386<br/>samples = 8526<br/>value = [655, 6505, 1366]<br/>class = Lettres>, fillcolor="#39e581b7"] ;
624 -> 625 ;
626 [label=<face &le; 0.501<br/>gini = 0.386<br/>samples = 8523<br/>value = [655, 6505, 1363]<br/>class = Lettres>, fillcolor="#39e581b7"] ;
625 -> 626 ;
